%YAML:1.0
---
opencv_ml_svm:
   format: 3
   svmType: C_SVC
   kernel:
      type: RBF
      gamma: 5.0624999999999998e-01
   C: 1.2500000000000000e+01
   term_criteria: { epsilon:1.1920928955078125e-07, iterations:1000 }
   var_count: 2025
   class_count: 10
   class_labels: !!opencv-matrix
      rows: 10
      cols: 1
      dt: i
      data: [ 0, 1, 2, 3, 4, 5, 6, 7, 8, 9 ]
   sv_total: 10
   support_vectors:
      - [ 4.20626253e-01, 2.46853173e-01, 7.40559578e-01, 0., 0., 0.,
          1.47392869e-01, 4.91309576e-02, 4.20626253e-01, 4.84893769e-01,
          1.96328089e-01, 4.84893769e-01, 1.93567630e-02, 1.70872703e-01,
          0., 4.46661830e-01, 1.48887277e-01, 4.84893769e-01,
          5.42634487e-01, 5.42634487e-01, 5.42634487e-01, 9.88650396e-02,
          8.12165737e-02, 3.69889550e-02, 3.62178124e-02, 3.62387225e-02,
          3.01431358e-01, 5.26057422e-01, 5.26057422e-01, 5.26057422e-01,
          0., 8.68559405e-02, 0., 1.62013769e-01, 5.40045872e-02,
          3.57530922e-01, 4.84419405e-01, 4.84419405e-01, 4.73858804e-01,
          2.08046976e-02, 1.49644420e-01, 0., 1.98560074e-01,
          6.61866963e-02, 4.84419405e-01, 6.49129808e-01, 6.49129808e-01,
          3.45936507e-01, 2.30902880e-02, 2.01184843e-02, 0.,
          2.46998742e-02, 8.41791090e-03, 1.71725124e-01, 6.15709424e-01,
          6.15709424e-01, 3.78605485e-01, 2.10622922e-02, 1.79554161e-03,
          0., 2.27186736e-02, 1.24876648e-02, 3.01985651e-01,
          5.65987289e-01, 5.65987289e-01, 1.82336316e-01, 1.25304377e-03,
          3.29847983e-03, 5.62096888e-04, 7.57500716e-03, 2.57788016e-03,
          5.65987289e-01, 6.06374204e-01, 6.06374204e-01, 1.58947781e-01,
          2.25012191e-03, 1.32603943e-02, 3.40237282e-03, 5.42086642e-03,
          1.49119925e-03, 4.82781112e-01, 6.15709424e-01, 6.15709424e-01,
          3.78605485e-01, 2.10622922e-02, 1.79554161e-03, 0.,
          2.27186736e-02, 1.24876648e-02, 3.01985651e-01, 5.65987289e-01,
          5.65987289e-01, 1.82336316e-01, 1.25304377e-03, 3.29847983e-03,
          5.62096888e-04, 7.57500716e-03, 2.57788016e-03, 5.65987289e-01,
          6.06374204e-01, 6.06374204e-01, 1.58947781e-01, 2.25012191e-03,
          1.32603943e-02, 3.40237282e-03, 5.42086642e-03, 1.49119925e-03,
          4.82781112e-01, 6.21580303e-01, 6.21580303e-01, 2.40325511e-01,
          1.96435694e-02, 9.14522272e-04, 1.04346161e-03, 7.89744966e-03,
          1.70580093e-02, 4.03202534e-01, 6.75221145e-01, 6.75221145e-01,
          2.31292069e-01, 3.43133835e-03, 1.76920295e-02, 2.34990735e-02,
          1.11512393e-02, 1.19144730e-02, 1.63623542e-01, 6.01706743e-01,
          3.68141323e-01, 3.16734999e-01, 7.52382427e-02, 2.90058434e-01,
          1.62442952e-01, 1.92727715e-01, 8.75743553e-02, 4.84867334e-01,
          5.72581351e-01, 5.72581351e-01, 1.03574559e-01, 0.,
          2.73597951e-04, 2.23758374e-03, 1.14136911e-03, 2.74137390e-04,
          5.72581351e-01, 5.88955820e-01, 6.19363308e-01, 2.67402500e-01,
          2.48431470e-02, 2.90465988e-02, 5.93372025e-02, 1.89698890e-01,
          1.45022735e-01, 3.51599604e-01, 4.52142119e-01, 2.55012780e-01,
          4.81379569e-01, 1.64665982e-01, 5.71079366e-02, 7.58569762e-02,
          1.44964397e-01, 1.88495025e-01, 6.19526207e-01, 5.72581351e-01,
          5.72581351e-01, 1.03574559e-01, 0., 2.73597951e-04,
          2.23758374e-03, 1.14136911e-03, 2.74137390e-04, 5.72581351e-01,
          5.88955820e-01, 6.19363308e-01, 2.67402500e-01, 2.48431470e-02,
          2.90465988e-02, 5.93372025e-02, 1.89698890e-01, 1.45022735e-01,
          3.51599604e-01, 4.52142119e-01, 2.55012780e-01, 4.81379569e-01,
          1.64665982e-01, 5.71079366e-02, 7.58569762e-02, 1.44964397e-01,
          1.88495025e-01, 6.19526207e-01, 0., 7.27327988e-02,
          5.74090421e-01, 5.74090421e-01, 5.74090421e-01, 0.,
          1.45172502e-03, 1.53546296e-02, 0., 0., 1.26359090e-01,
          3.79077256e-01, 1.20470688e-01, 8.44051600e-01, 0., 0., 0., 0.,
          0., 0., 0., 0., 0., 0., 0., 0., 0., 6.16758305e-04,
          4.01894227e-02, 5.75219333e-01, 5.75219333e-01, 5.75219333e-01,
          2.20992905e-03, 1.71768086e-04, 1.81675958e-03, 6.16758305e-04,
          0., 7.24624172e-02, 5.74170649e-01, 5.74170649e-01,
          5.74170649e-01, 0., 0., 0., 0., 0., 0., 0., 0., 9.89872277e-01,
          0., 0., 0., 0., 6.16758305e-04, 4.01894227e-02, 5.75219333e-01,
          5.75219333e-01, 5.75219333e-01, 2.20992905e-03, 1.71768086e-04,
          1.81675958e-03, 6.16758305e-04, 0., 7.24624172e-02,
          5.74170649e-01, 5.74170649e-01, 5.74170649e-01, 0., 0., 0., 0.,
          0., 0., 0., 0., 9.89872277e-01, 0., 0., 0., 0., 2.10309643e-02,
          9.66212600e-02, 5.71497619e-01, 5.71497619e-01, 5.71497619e-01,
          5.24591394e-02, 3.74804921e-02, 1.24934968e-02, 1.93369314e-02,
          3.88428033e-03, 1.09410184e-02, 5.75592697e-01, 5.75592697e-01,
          5.75592697e-01, 1.27545819e-02, 4.92211478e-03, 1.64070504e-03,
          2.69401888e-03, 3.87114752e-03, 7.04730079e-02, 5.74184000e-01,
          5.74184000e-01, 5.74184000e-01, 9.08871833e-03, 9.88839567e-03,
          4.79711592e-03, 4.44421032e-03, 3.26583982e-01, 2.69251198e-01,
          4.18985903e-01, 4.18985903e-01, 4.18985903e-01, 7.00902864e-02,
          4.18985903e-01, 1.66125983e-01, 2.86276042e-01, 1.38315812e-01,
          3.40847880e-01, 5.28083503e-01, 5.28083503e-01, 5.28083503e-01,
          1.17551140e-01, 3.22477855e-02, 9.82153695e-03, 8.85798857e-02,
          1.05226357e-02, 4.09407884e-01, 6.15305722e-01, 6.15305722e-01,
          2.61166185e-01, 2.43388750e-02, 4.58725402e-03, 2.65367585e-03,
          1.00147910e-02, 3.26583982e-01, 2.69251198e-01, 4.18985903e-01,
          4.18985903e-01, 4.18985903e-01, 7.00902864e-02, 4.18985903e-01,
          1.66125983e-01, 2.86276042e-01, 1.38315812e-01, 3.40847880e-01,
          5.28083503e-01, 5.28083503e-01, 5.28083503e-01, 1.17551140e-01,
          3.22477855e-02, 9.82153695e-03, 8.85798857e-02, 1.05226357e-02,
          4.09407884e-01, 6.15305722e-01, 6.15305722e-01, 2.61166185e-01,
          2.43388750e-02, 4.58725402e-03, 2.65367585e-03, 1.00147910e-02,
          1.99902400e-01, 5.00398993e-01, 5.00398993e-01, 1.48050562e-01,
          5.00398993e-01, 1.56332046e-01, 3.46421093e-01, 1.15473695e-01,
          1.55382648e-01, 2.55919129e-01, 3.98286998e-01, 3.98286998e-01,
          3.98286998e-01, 3.98286998e-01, 3.98286998e-01, 1.92331940e-01,
          2.02465713e-01, 2.43680224e-01, 4.10053618e-02, 1.44936025e-01,
          6.28174961e-01, 6.28174961e-01, 4.17094082e-01, 4.09398749e-02,
          4.82770652e-02, 1.90728940e-02, 5.91147840e-02, 1.94607317e-01,
          4.52664405e-01, 5.85740864e-01, 6.78619593e-02, 5.85740864e-01,
          2.43766196e-02, 1.41089514e-01, 4.70298417e-02, 1.94607317e-01,
          3.58394474e-01, 4.02668446e-01, 4.02668446e-01, 1.63486943e-01,
          4.02668446e-01, 2.58236200e-01, 4.02668446e-01, 1.84693187e-01,
          3.02387059e-01, 1.13275491e-01, 3.43903124e-01, 5.20732403e-01,
          5.20732403e-01, 5.20732403e-01, 1.36477366e-01, 1.63562134e-01,
          3.89797240e-02, 5.75676374e-02, 5.42634487e-01, 5.42634487e-01,
          5.42634487e-01, 9.88650396e-02, 8.12165737e-02, 3.69889550e-02,
          3.62178124e-02, 3.62387225e-02, 3.01431358e-01, 6.60607457e-01,
          6.60607457e-01, 3.02514941e-01, 6.28006039e-03, 1.82764381e-02,
          1.09792566e-02, 1.57568678e-02, 1.01240836e-02, 1.68048769e-01,
          5.52639902e-01, 5.52639902e-01, 2.79600888e-01, 0.,
          3.96275381e-03, 3.51945055e-04, 5.70493750e-03, 4.89071338e-03,
          5.52639902e-01, 6.49129808e-01, 6.49129808e-01, 3.45936507e-01,
          2.30902880e-02, 2.01184843e-02, 0., 2.46998742e-02,
          8.41791090e-03, 1.71725124e-01, 6.72727227e-01, 6.72727227e-01,
          2.84504801e-01, 1.89868454e-03, 1.19898589e-02, 3.14554689e-03,
          3.20854317e-03, 3.96403158e-03, 8.38695094e-02, 6.43905997e-01,
          6.43905997e-01, 3.08912426e-01, 4.81377803e-02, 6.27869293e-02,
          1.48636550e-02, 4.41260561e-02, 1.51101658e-02, 2.45476902e-01,
          6.06374204e-01, 6.06374204e-01, 1.58947781e-01, 2.25012191e-03,
          1.32603943e-02, 3.40237282e-03, 5.42086642e-03, 1.49119925e-03,
          4.82781112e-01, 5.99042177e-01, 5.99042177e-01, 3.83280665e-01,
          9.05960798e-03, 1.75375015e-01, 3.92687432e-02, 1.03788294e-01,
          6.72065765e-02, 2.85905957e-01, 3.47353697e-01, 4.41010535e-01,
          6.77059531e-01, 1.03190958e-01, 1.81873560e-01, 1.21856242e-01,
          4.07307260e-02, 3.11727021e-02, 3.61517966e-01, 6.06374204e-01,
          6.06374204e-01, 1.58947781e-01, 2.25012191e-03, 1.32603943e-02,
          3.40237282e-03, 5.42086642e-03, 1.49119925e-03, 4.82781112e-01,
          5.99042177e-01, 5.99042177e-01, 3.83280665e-01, 9.05960798e-03,
          1.75375015e-01, 3.92687432e-02, 1.03788294e-01, 6.72065765e-02,
          2.85905957e-01, 3.47353697e-01, 4.41010535e-01, 6.77059531e-01,
          1.03190958e-01, 1.81873560e-01, 1.21856242e-01, 4.07307260e-02,
          3.11727021e-02, 3.61517966e-01, 6.01706743e-01, 3.68141323e-01,
          3.16734999e-01, 7.52382427e-02, 2.90058434e-01, 1.62442952e-01,
          1.92727715e-01, 8.75743553e-02, 4.84867334e-01, 4.85715300e-01,
          2.89073408e-01, 6.49208724e-01, 0., 2.41414040e-01, 0.,
          8.50903690e-02, 2.83634569e-02, 3.79725069e-01, 4.18526798e-01,
          3.64584118e-01, 1.13443948e-01, 0., 0., 0., 0., 0.,
          2.22265512e-01, 4.52142119e-01, 2.55012780e-01, 4.81379569e-01,
          1.64665982e-01, 5.71079366e-02, 7.58569762e-02, 1.44964397e-01,
          1.88495025e-01, 6.19526207e-01, 2.46294171e-01, 3.82327616e-01,
          6.34830534e-01, 0., 3.93960886e-02, 0., 0., 0., 1.43759415e-01,
          0., 0., 0., 0., 0., 0., 0., 0., 0., 4.52142119e-01,
          2.55012780e-01, 4.81379569e-01, 1.64665982e-01, 5.71079366e-02,
          7.58569762e-02, 1.44964397e-01, 1.88495025e-01, 6.19526207e-01,
          2.46294171e-01, 3.82327616e-01, 6.34830534e-01, 0.,
          3.93960886e-02, 0., 0., 0., 1.43759415e-01, 0., 0., 0., 0., 0.,
          0., 0., 0., 0., 0., 0., 0., 0., 0., 0., 0., 0., 0., 0., 0., 0.,
          0., 0., 0., 0., 0., 0., 0., 0., 0., 0., 0., 0., 0., 0., 0., 0.,
          0., 0., 0., 9.89872277e-01, 0., 0., 0., 0., 0., 0., 0., 0.,
          9.01509285e-01, 0., 0., 0., 0., 0., 0., 0., 0., 5.75730562e-01,
          0., 0., 0., 0., 0., 0., 0., 0., 9.89872277e-01, 0., 0., 0., 0.,
          0., 0., 0., 0., 9.01509285e-01, 0., 0., 0., 0., 0., 0., 0., 0.,
          5.75730562e-01, 0., 0., 0., 0., 3.87114752e-03, 7.04730079e-02,
          5.74184000e-01, 5.74184000e-01, 5.74184000e-01, 9.08871833e-03,
          9.88839567e-03, 4.79711592e-03, 4.44421032e-03, 1.85672954e-01,
          2.40500808e-01, 5.21029532e-01, 2.35688865e-01, 6.57048762e-01,
          1.33733913e-01, 2.49146298e-01, 1.86460897e-01, 1.57506928e-01,
          1.25419289e-01, 2.39498287e-01, 6.52717948e-01, 2.55786572e-02,
          6.44877791e-01, 0., 2.02465490e-01, 6.74884990e-02,
          1.12250514e-01, 1.05226357e-02, 4.09407884e-01, 6.15305722e-01,
          6.15305722e-01, 2.61166185e-01, 2.43388750e-02, 4.58725402e-03,
          2.65367585e-03, 1.00147910e-02, 1.01402104e-01, 1.82416707e-01,
          5.69322467e-01, 5.69322467e-01, 5.17313063e-01, 6.85413331e-02,
          8.81574228e-02, 8.03409293e-02, 1.26346380e-01, 2.59910464e-01,
          3.00916880e-01, 7.41973877e-01, 6.82254210e-02, 4.30687279e-01,
          1.24730758e-01, 1.73200622e-01, 3.36027592e-02, 1.97718769e-01,
          1.05226357e-02, 4.09407884e-01, 6.15305722e-01, 6.15305722e-01,
          2.61166185e-01, 2.43388750e-02, 4.58725402e-03, 2.65367585e-03,
          1.00147910e-02, 1.01402104e-01, 1.82416707e-01, 5.69322467e-01,
          5.69322467e-01, 5.17313063e-01, 6.85413331e-02, 8.81574228e-02,
          8.03409293e-02, 1.26346380e-01, 2.59910464e-01, 3.00916880e-01,
          7.41973877e-01, 6.82254210e-02, 4.30687279e-01, 1.24730758e-01,
          1.73200622e-01, 3.36027592e-02, 1.97718769e-01, 4.10053618e-02,
          1.44936025e-01, 6.28174961e-01, 6.28174961e-01, 4.17094082e-01,
          4.09398749e-02, 4.82770652e-02, 1.90728940e-02, 5.91147840e-02,
          7.28320656e-03, 2.81166553e-01, 5.70971370e-01, 5.70971370e-01,
          5.12915671e-01, 3.63586843e-03, 4.63053957e-03, 1.48837524e-03,
          7.41355447e-03, 7.07357451e-02, 1.20298333e-01, 3.43754083e-01,
          6.34003282e-01, 6.70082688e-01, 8.50319490e-03, 9.90895461e-03,
          0., 6.72829449e-02, 1.13275491e-01, 3.43903124e-01,
          5.20732403e-01, 5.20732403e-01, 5.20732403e-01, 1.36477366e-01,
          1.63562134e-01, 3.89797240e-02, 5.75676374e-02, 1.23433955e-03,
          2.22434118e-01, 5.61220348e-01, 5.61220348e-01, 5.61220348e-01,
          2.49885209e-03, 2.11714348e-03, 2.19504785e-04, 1.23433955e-03,
          6.56237069e-04, 4.55691725e-01, 5.12259066e-01, 5.12259066e-01,
          5.12259066e-01, 0., 0., 0., 6.56237069e-04, 5.52639902e-01,
          5.52639902e-01, 2.79600888e-01, 0., 3.96275381e-03,
          3.51945055e-04, 5.70493750e-03, 4.89071338e-03, 5.52639902e-01,
          4.94464785e-01, 4.94464785e-01, 4.94464785e-01, 1.41600287e-02,
          1.01328969e-01, 1.79761164e-02, 5.28500006e-02, 5.91223352e-02,
          4.94464785e-01, 6.52554408e-02, 1.04094986e-02, 2.89943926e-02,
          1.50758680e-02, 3.01539786e-02, 3.40127992e-03, 5.73850811e-01,
          5.73850811e-01, 5.73850811e-01, 6.43905997e-01, 6.43905997e-01,
          3.08912426e-01, 4.81377803e-02, 6.27869293e-02, 1.48636550e-02,
          4.41260561e-02, 1.51101658e-02, 2.45476902e-01, 6.14234209e-01,
          1.94264770e-01, 2.20206857e-01, 6.74512759e-02, 2.06343561e-01,
          7.61521161e-02, 2.11965695e-01, 3.20285827e-01, 5.58502614e-01,
          2.94971496e-01, 5.13734147e-02, 2.02936903e-01, 7.48083442e-02,
          6.27137199e-02, 0., 2.08950073e-01, 3.35208833e-01,
          8.31714094e-01, 3.47353697e-01, 4.41010535e-01, 6.77059531e-01,
          1.03190958e-01, 1.81873560e-01, 1.21856242e-01, 4.07307260e-02,
          3.11727021e-02, 3.61517966e-01, 0., 0., 0., 0., 0., 0., 0., 0.,
          0., 0., 0., 0., 0., 0., 0., 8.63963664e-01, 2.87987918e-01, 0.,
          3.47353697e-01, 4.41010535e-01, 6.77059531e-01, 1.03190958e-01,
          1.81873560e-01, 1.21856242e-01, 4.07307260e-02, 3.11727021e-02,
          3.61517966e-01, 0., 0., 0., 0., 0., 0., 0., 0., 0., 0., 0., 0.,
          0., 0., 0., 8.63963664e-01, 2.87987918e-01, 0., 4.18526798e-01,
          3.64584118e-01, 1.13443948e-01, 0., 0., 0., 0., 0.,
          2.22265512e-01, 0., 0., 0., 0., 0., 0., 0., 0., 0., 0., 0., 0.,
          0., 0., 0., 2.26307034e-01, 7.54356757e-02, 0., 0., 0., 0., 0.,
          0., 0., 0., 0., 0., 0., 0., 0., 0., 0., 0., 0., 0., 0., 0., 0.,
          0., 0., 0., 0., 0., 0., 0., 0., 0., 0., 0., 0., 0., 0., 0., 0.,
          0., 0., 0., 0., 0., 0., 0., 0., 0., 0., 0., 0., 0., 0., 0., 0.,
          0., 0., 0., 0., 0., 0., 0., 0., 0., 0., 0., 0., 0., 0., 0., 0.,
          0., 0., 0., 0., 0., 0., 0., 0., 0., 0., 0., 0., 0., 0., 0., 0.,
          0., 5.75730562e-01, 0., 0., 0., 0., 0., 0., 0., 0., 0., 0., 0.,
          0., 0., 0., 0., 0., 0., 0., 0., 0., 0., 0., 0., 0., 0., 0.,
          5.75730562e-01, 0., 0., 0., 0., 0., 0., 0., 0., 0., 0., 0., 0.,
          0., 0., 0., 0., 0., 0., 0., 0., 0., 0., 1.25419289e-01,
          2.39498287e-01, 6.52717948e-01, 2.55786572e-02, 6.44877791e-01,
          0., 2.02465490e-01, 6.74884990e-02, 1.12250514e-01, 0., 0., 0.,
          0., 0., 0., 0., 0., 0., 0., 0., 0., 0., 0., 0., 8.23361039e-01,
          2.74453700e-01, 0., 2.59910464e-01, 3.00916880e-01,
          7.41973877e-01, 6.82254210e-02, 4.30687279e-01, 1.24730758e-01,
          1.73200622e-01, 3.36027592e-02, 1.97718769e-01, 0.,
          2.76843905e-02, 8.30531716e-02, 0., 7.03143716e-01, 0.,
          4.67620999e-01, 1.55873656e-01, 0., 7.12041333e-02,
          1.08953819e-01, 2.33978614e-01, 0., 7.81817615e-01,
          2.62038678e-01, 4.30564731e-01, 1.31070808e-01, 5.26086576e-02,
          2.59910464e-01, 3.00916880e-01, 7.41973877e-01, 6.82254210e-02,
          4.30687279e-01, 1.24730758e-01, 1.73200622e-01, 3.36027592e-02,
          1.97718769e-01, 0., 2.76843905e-02, 8.30531716e-02, 0.,
          7.03143716e-01, 0., 4.67620999e-01, 1.55873656e-01, 0.,
          7.12041333e-02, 1.08953819e-01, 2.33978614e-01, 0.,
          7.81817615e-01, 2.62038678e-01, 4.30564731e-01, 1.31070808e-01,
          5.26086576e-02, 7.07357451e-02, 1.20298333e-01, 3.43754083e-01,
          6.34003282e-01, 6.70082688e-01, 8.50319490e-03, 9.90895461e-03,
          0., 6.72829449e-02, 1.12364464e-01, 1.44976443e-02,
          5.45769222e-02, 7.77575523e-02, 5.74519515e-01, 4.80261706e-02,
          7.04435945e-01, 3.06966811e-01, 1.69332519e-01, 1.72561303e-01,
          1.82185352e-01, 1.38331473e-01, 1.38882399e-01, 5.24413168e-01,
          5.55308223e-01, 4.91884619e-01, 2.40716070e-01, 9.77756009e-02,
          6.56237069e-04, 4.55691725e-01, 5.12259066e-01, 5.12259066e-01,
          5.12259066e-01, 0., 0., 0., 6.56237069e-04, 2.20547989e-02,
          3.14021832e-03, 9.50458366e-03, 5.88783936e-04, 2.68943369e-01,
          6.15217149e-01, 6.46754920e-01, 3.51137429e-01, 2.33228486e-02,
          6.07681833e-03, 5.35973813e-03, 1.22017553e-02, 3.18153389e-03,
          5.70306003e-01, 5.70306003e-01, 5.70306003e-01, 1.35334462e-01,
          4.27973690e-03, 6.52554408e-02, 1.04094986e-02, 2.89943926e-02,
          1.50758680e-02, 3.01539786e-02, 3.40127992e-03, 5.73850811e-01,
          5.73850811e-01, 5.73850811e-01, 1.33575559e-01, 3.30478186e-03,
          1.03444252e-02, 1.14412345e-04, 7.89019465e-03, 3.41819227e-03,
          3.16678643e-01, 6.61466777e-01, 6.61466777e-01, 2.48339072e-01,
          5.35035431e-02, 3.80875990e-02, 0., 1.20277926e-01,
          3.32022123e-02, 4.44383502e-01, 5.97912371e-01, 5.97912371e-01,
          2.94971496e-01, 5.13734147e-02, 2.02936903e-01, 7.48083442e-02,
          6.27137199e-02, 0., 2.08950073e-01, 3.35208833e-01,
          8.31714094e-01, 1.21352851e-01, 1.54953054e-03, 5.20054484e-03,
          1.46833874e-04, 1.63552035e-02, 0., 3.11391413e-01,
          6.63846552e-01, 6.63846552e-01, 8.96580070e-02, 2.12260359e-03,
          4.55878529e-04, 0., 5.35321189e-03, 4.65237629e-03,
          2.76013166e-01, 6.74163520e-01, 6.74163520e-01, 0., 0., 0., 0.,
          0., 0., 8.63963664e-01, 2.87987918e-01, 0., 2.84296572e-01,
          3.55245359e-02, 5.11858538e-02, 0., 1.97647423e-01, 0.,
          4.94281441e-01, 4.85856563e-01, 6.20994449e-01, 1.14591219e-01,
          5.55089628e-03, 3.64526152e-03, 0., 7.46793067e-03, 0.,
          3.15881968e-01, 6.63462162e-01, 6.63462162e-01, 0., 0., 0., 0.,
          0., 0., 8.63963664e-01, 2.87987918e-01, 0., 2.84296572e-01,
          3.55245359e-02, 5.11858538e-02, 0., 1.97647423e-01, 0.,
          4.94281441e-01, 4.85856563e-01, 6.20994449e-01, 1.14591219e-01,
          5.55089628e-03, 3.64526152e-03, 0., 7.46793067e-03, 0.,
          3.15881968e-01, 6.63462162e-01, 6.63462162e-01, 0., 0., 0., 0.,
          0., 0., 2.26307034e-01, 7.54356757e-02, 0., 6.04081392e-01,
          4.69747148e-02, 5.20364679e-02, 0., 0., 0., 1.44233629e-01,
          1.53599441e-01, 6.49663270e-01, 6.98044077e-02, 5.14839496e-03,
          2.56504980e-03, 1.60933249e-02, 3.05524804e-02, 1.90788191e-02,
          7.26381063e-01, 6.32031202e-01, 2.43298560e-01, 0., 0., 0., 0.,
          0., 0., 0., 0., 0., 0., 0., 0., 0., 0., 0., 0., 0., 0.,
          5.34435883e-02, 1.24065457e-02, 5.29415123e-02, 1.97685398e-02,
          4.27078068e-01, 3.02445870e-02, 7.50648618e-01, 4.07688349e-01,
          2.22835794e-01, 0., 0., 0., 0., 0., 0., 0., 0., 0., 0., 0., 0.,
          0., 0., 0., 0., 0., 0., 5.34435883e-02, 1.24065457e-02,
          5.29415123e-02, 1.97685398e-02, 4.27078068e-01, 3.02445870e-02,
          7.50648618e-01, 4.07688349e-01, 2.22835794e-01, 0., 0., 0., 0.,
          0., 0., 0., 0., 0., 0., 0., 0., 0., 0., 0., 0., 0., 0.,
          1.51066124e-01, 5.27042411e-02, 1.09253749e-01, 4.26876284e-02,
          2.79894352e-01, 3.32556441e-02, 8.31708670e-01, 3.42210740e-01,
          2.25251049e-01, 0., 0., 0., 0., 0., 0., 0., 0., 0., 0., 0., 0.,
          0., 9.25398588e-01, 0., 0., 0., 0., 2.00525105e-01,
          1.75966378e-02, 1.02134887e-02, 0., 3.76831025e-01,
          4.40373411e-03, 8.15532804e-01, 2.78405368e-01, 1.99298322e-01,
          0., 0., 0., 0., 0., 0., 0., 0., 0., 0., 0., 0., 0.,
          9.25398588e-01, 0., 0., 0., 0., 2.00525105e-01, 1.75966378e-02,
          1.02134887e-02, 0., 3.76831025e-01, 4.40373411e-03,
          8.15532804e-01, 2.78405368e-01, 1.99298322e-01, 0., 0., 0., 0.,
          0., 0., 8.23361039e-01, 2.74453700e-01, 0., 3.00205886e-01,
          1.80020958e-01, 2.27340266e-01, 0., 5.81996083e-01,
          3.56466591e-01, 5.67402601e-01, 1.26949683e-01, 1.13588393e-01,
          3.02767586e-02, 2.80721560e-02, 6.51299953e-02, 0.,
          5.72993279e-01, 5.72993279e-01, 5.72993279e-01, 5.36176153e-02,
          2.22021919e-02, 7.12041333e-02, 1.08953819e-01, 2.33978614e-01,
          0., 7.81817615e-01, 2.62038678e-01, 4.30564731e-01,
          1.31070808e-01, 5.26086576e-02, 4.43833917e-02, 2.06900667e-02,
          3.34845223e-02, 1.40366070e-02, 4.23442751e-01, 6.32057846e-01,
          6.32057846e-01, 1.02719985e-01, 3.35233584e-02, 1.77841343e-03,
          1.40050927e-03, 2.45337072e-03, 2.55839583e-02, 4.59661663e-01,
          6.24745548e-01, 6.24745548e-01, 3.45249139e-02, 1.34571583e-03,
          7.12041333e-02, 1.08953819e-01, 2.33978614e-01, 0.,
          7.81817615e-01, 2.62038678e-01, 4.30564731e-01, 1.31070808e-01,
          5.26086576e-02, 4.43833917e-02, 2.06900667e-02, 3.34845223e-02,
          1.40366070e-02, 4.23442751e-01, 6.32057846e-01, 6.32057846e-01,
          1.02719985e-01, 3.35233584e-02, 1.77841343e-03, 1.40050927e-03,
          2.45337072e-03, 2.55839583e-02, 4.59661663e-01, 6.24745548e-01,
          6.24745548e-01, 3.45249139e-02, 1.34571583e-03, 1.72561303e-01,
          1.82185352e-01, 1.38331473e-01, 1.38882399e-01, 5.24413168e-01,
          5.55308223e-01, 4.91884619e-01, 2.40716070e-01, 9.77756009e-02,
          2.33547366e-03, 3.15496977e-03, 2.37119244e-03, 1.26139224e-02,
          3.47441792e-01, 6.32338703e-01, 6.32338703e-01, 2.70328969e-01,
          2.88753468e-03, 1.31871849e-02, 6.42442843e-03, 1.92732867e-02,
          4.01893035e-02, 5.52448809e-01, 5.73321223e-01, 5.73321223e-01,
          1.69882014e-01, 2.48830821e-02, 6.07681833e-03, 5.35973813e-03,
          1.22017553e-02, 3.18153389e-03, 5.70306003e-01, 5.70306003e-01,
          5.70306003e-01, 1.35334462e-01, 4.27973690e-03, 3.28655733e-04,
          2.44753435e-03, 7.03270221e-03, 4.69859457e-03, 5.68379283e-01,
          5.68379283e-01, 5.68379283e-01, 1.58291206e-01, 5.06156357e-03,
          7.42975399e-02, 6.55451268e-02, 1.96635380e-01, 5.12954853e-02,
          5.01128435e-01, 5.01128435e-01, 5.01128435e-01, 4.04115170e-01,
          1.64875537e-01, 2.48339072e-01, 5.35035431e-02, 3.80875990e-02,
          0., 1.20277926e-01, 3.32022123e-02, 4.44383502e-01,
          5.97912371e-01, 5.97912371e-01, 4.58035767e-01, 1.81089714e-01,
          1.86026677e-01, 0., 2.04179242e-01, 2.17138723e-01,
          4.58035767e-01, 4.58035767e-01, 4.58035767e-01, 4.90956873e-01,
          3.80898356e-01, 1.73256010e-01, 0., 1.04068331e-01,
          2.37027973e-01, 4.90956873e-01, 1.72819912e-01, 4.90956873e-01,
          8.96580070e-02, 2.12260359e-03, 4.55878529e-04, 0.,
          5.35321189e-03, 4.65237629e-03, 2.76013166e-01, 6.74163520e-01,
          6.74163520e-01, 3.55188221e-01, 7.54225925e-02, 1.15313388e-01,
          0., 9.94732901e-02, 2.50690412e-02, 5.08612633e-01,
          5.38640022e-01, 5.38640022e-01, 3.68065417e-01, 2.84021765e-01,
          3.64355892e-01, 0., 3.68065417e-01, 3.24866772e-01,
          3.68065417e-01, 3.68065417e-01, 3.68065417e-01, 1.14591219e-01,
          5.55089628e-03, 3.64526152e-03, 0., 7.46793067e-03, 0.,
          3.15881968e-01, 6.63462162e-01, 6.63462162e-01, 7.70766661e-02,
          2.41743792e-02, 1.55816376e-02, 0., 2.79274285e-02,
          4.05406319e-02, 5.73028982e-01, 5.73028982e-01, 5.73028982e-01,
          3.85633826e-01, 1.81213051e-01, 2.06936821e-01, 0.,
          3.04868132e-01, 2.41565585e-01, 4.54527944e-01, 4.54527944e-01,
          4.54527944e-01, 1.14591219e-01, 5.55089628e-03, 3.64526152e-03,
          0., 7.46793067e-03, 0., 3.15881968e-01, 6.63462162e-01,
          6.63462162e-01, 7.70766661e-02, 2.41743792e-02, 1.55816376e-02,
          0., 2.79274285e-02, 4.05406319e-02, 5.73028982e-01,
          5.73028982e-01, 5.73028982e-01, 3.85633826e-01, 1.81213051e-01,
          2.06936821e-01, 0., 3.04868132e-01, 2.41565585e-01,
          4.54527944e-01, 4.54527944e-01, 4.54527944e-01, 6.98044077e-02,
          5.14839496e-03, 2.56504980e-03, 1.60933249e-02, 3.05524804e-02,
          1.90788191e-02, 7.26381063e-01, 6.32031202e-01, 2.43298560e-01,
          5.03438823e-02, 1.05354516e-02, 6.55541022e-04, 2.46071629e-03,
          5.79960365e-03, 9.66873020e-03, 5.74885547e-01, 5.74885547e-01,
          5.74885547e-01, 1.04710892e-01, 4.09909859e-02, 5.07737920e-02,
          0., 5.49494922e-02, 1.74253676e-02, 4.39236730e-01,
          6.25412285e-01, 6.25412285e-01, 5.34435883e-02, 1.24065457e-02,
          5.29415123e-02, 1.97685398e-02, 4.27078068e-01, 3.02445870e-02,
          7.50648618e-01, 4.07688349e-01, 2.22835794e-01, 1.48988649e-01,
          4.93290238e-02, 8.04545730e-02, 1.02820598e-01, 1.20736465e-01,
          1.20840725e-02, 4.16261166e-01, 6.18124425e-01, 6.18124425e-01,
          2.11710379e-01, 8.89243558e-04, 5.59474388e-03, 6.20180927e-03,
          7.62637705e-03, 7.28451487e-05, 2.17242315e-01, 6.71250522e-01,
          6.71250522e-01, 5.34435883e-02, 1.24065457e-02, 5.29415123e-02,
          1.97685398e-02, 4.27078068e-01, 3.02445870e-02, 7.50648618e-01,
          4.07688349e-01, 2.22835794e-01, 1.48988649e-01, 4.93290238e-02,
          8.04545730e-02, 1.02820598e-01, 1.20736465e-01, 1.20840725e-02,
          4.16261166e-01, 6.18124425e-01, 6.18124425e-01, 2.11710379e-01,
          8.89243558e-04, 5.59474388e-03, 6.20180927e-03, 7.62637705e-03,
          7.28451487e-05, 2.17242315e-01, 6.71250522e-01, 6.71250522e-01,
          1.51066124e-01, 5.27042411e-02, 1.09253749e-01, 4.26876284e-02,
          2.79894352e-01, 3.32556441e-02, 8.31708670e-01, 3.42210740e-01,
          2.25251049e-01, 3.23365837e-01, 1.50558144e-01, 4.25972015e-01,
          2.14926496e-01, 4.34858263e-01, 5.52043021e-02, 4.40247387e-01,
          3.93821865e-01, 3.12356353e-01, 3.14541101e-01, 1.83044001e-02,
          5.96625917e-02, 2.85392310e-02, 4.22406256e-01, 4.22406256e-01,
          4.22406256e-01, 4.22406256e-01, 4.22406256e-01, 2.00525105e-01,
          1.75966378e-02, 1.02134887e-02, 0., 3.76831025e-01,
          4.40373411e-03, 8.15532804e-01, 2.78405368e-01, 1.99298322e-01,
          1.58782810e-01, 8.28705281e-02, 1.62853152e-01, 2.41158926e-03,
          6.32124126e-01, 4.49084133e-01, 5.49368620e-01, 1.17042989e-01,
          1.35351524e-01, 6.19403087e-03, 2.38332455e-03, 5.42603992e-03,
          2.39647250e-03, 5.54894745e-01, 5.54894745e-01, 5.54894745e-01,
          2.65649259e-01, 9.24321637e-03, 2.00525105e-01, 1.75966378e-02,
          1.02134887e-02, 0., 3.76831025e-01, 4.40373411e-03,
          8.15532804e-01, 2.78405368e-01, 1.99298322e-01, 1.58782810e-01,
          8.28705281e-02, 1.62853152e-01, 2.41158926e-03, 6.32124126e-01,
          4.49084133e-01, 5.49368620e-01, 1.17042989e-01, 1.35351524e-01,
          6.19403087e-03, 2.38332455e-03, 5.42603992e-03, 2.39647250e-03,
          5.54894745e-01, 5.54894745e-01, 5.54894745e-01, 2.65649259e-01,
          9.24321637e-03, 3.02767586e-02, 2.80721560e-02, 6.51299953e-02,
          0., 5.72993279e-01, 5.72993279e-01, 5.72993279e-01,
          5.36176153e-02, 2.22021919e-02, 8.58574081e-03, 3.11583886e-03,
          7.18575111e-03, 0., 5.75424671e-01, 5.75424671e-01,
          5.75424671e-01, 2.77560204e-02, 2.80775037e-03, 2.28691343e-02,
          4.33352869e-03, 5.74763259e-03, 2.57557910e-02, 5.75019717e-01,
          5.75019717e-01, 5.75019717e-01, 3.27527188e-02, 2.03495007e-03,
          1.77841343e-03, 1.40050927e-03, 2.45337072e-03, 2.55839583e-02,
          4.59661663e-01, 6.24745548e-01, 6.24745548e-01, 3.45249139e-02,
          1.34571583e-03, 4.12750617e-02, 3.08342297e-02, 2.88952775e-02,
          8.61898139e-02, 5.70526481e-01, 5.70526481e-01, 5.70526481e-01,
          7.34579042e-02, 3.85680012e-02, 2.56422430e-01, 7.61782825e-02,
          1.30498543e-01, 3.16435277e-01, 4.86834347e-01, 4.86834347e-01,
          4.86834347e-01, 2.27185696e-01, 2.09247679e-01, 1.77841343e-03,
          1.40050927e-03, 2.45337072e-03, 2.55839583e-02, 4.59661663e-01,
          6.24745548e-01, 6.24745548e-01, 3.45249139e-02, 1.34571583e-03,
          4.12750617e-02, 3.08342297e-02, 2.88952775e-02, 8.61898139e-02,
          5.70526481e-01, 5.70526481e-01, 5.70526481e-01, 7.34579042e-02,
          3.85680012e-02, 2.56422430e-01, 7.61782825e-02, 1.30498543e-01,
          3.16435277e-01, 4.86834347e-01, 4.86834347e-01, 4.86834347e-01,
          2.27185696e-01, 2.09247679e-01, 1.31871849e-02, 6.42442843e-03,
          1.92732867e-02, 4.01893035e-02, 5.52448809e-01, 5.73321223e-01,
          5.73321223e-01, 1.69882014e-01, 2.48830821e-02, 7.34447315e-02,
          3.93223464e-02, 2.93633509e-02, 2.82180756e-01, 5.18832624e-01,
          5.18832624e-01, 5.18832624e-01, 3.04273635e-01, 8.51206779e-02,
          5.43026328e-02, 3.04821488e-02, 2.79052630e-02, 3.64784002e-01,
          5.81683576e-01, 2.43810400e-01, 5.81683576e-01, 2.43614167e-01,
          2.46910483e-01, 7.42975399e-02, 6.55451268e-02, 1.96635380e-01,
          5.12954853e-02, 5.01128435e-01, 5.01128435e-01, 5.01128435e-01,
          4.04115170e-01, 1.64875537e-01, 1.52322277e-01, 7.60658979e-02,
          2.28197694e-01, 0., 5.71277440e-01, 0., 5.71277440e-01,
          4.85975236e-01, 1.56029701e-01, 0., 0., 0., 0., 0., 0., 0., 0.,
          0. ]
      - [ 5.72931230e-01, 5.72931230e-01, 5.72931230e-01, 2.95031071e-02,
          1.87004376e-02, 0., 3.23869591e-03, 1.42808221e-02,
          8.99646431e-02, 1.47834614e-01, 2.20541090e-01, 1.82333097e-01,
          9.39032994e-04, 1.16577651e-02, 3.63675907e-04, 5.44880092e-01,
          5.44880092e-01, 5.44880092e-01, 1.03861503e-01, 8.29043612e-03,
          2.52708532e-02, 9.69120883e-04, 6.75354749e-02, 2.84645543e-03,
          5.71032166e-01, 5.71032166e-01, 5.71032166e-01, 5.72238803e-01,
          5.72238803e-01, 5.72238803e-01, 9.09535121e-03, 3.16123590e-02,
          0., 1.69241559e-02, 7.49527989e-03, 1.02417871e-01,
          1.50989115e-01, 7.06997737e-02, 9.86326709e-02, 4.57602143e-02,
          1.52319133e-01, 2.55863536e-02, 5.57064593e-01, 5.57064593e-01,
          5.57064593e-01, 7.03869760e-02, 3.73039744e-03, 1.18407747e-02,
          5.72450412e-03, 8.00815225e-03, 1.85418762e-02, 5.74084222e-01,
          5.74084222e-01, 5.74084222e-01, 4.75939721e-01, 4.75939721e-01,
          4.75939721e-01, 8.98797959e-02, 2.05023855e-01, 0.,
          1.66675478e-01, 1.06198169e-01, 4.75939721e-01, 3.78123015e-01,
          1.69174165e-01, 4.42370266e-01, 2.80427217e-01, 2.77146608e-01,
          6.11911379e-02, 2.33310163e-01, 3.94705385e-01, 5.06149471e-01,
          1.31866291e-01, 8.14137328e-03, 1.38920341e-02, 2.24390277e-03,
          1.28724035e-02, 1.80432387e-02, 5.70426643e-01, 5.70426643e-01,
          5.70426643e-01, 4.75939721e-01, 4.75939721e-01, 4.75939721e-01,
          8.98797959e-02, 2.05023855e-01, 0., 1.66675478e-01,
          1.06198169e-01, 4.75939721e-01, 3.78123015e-01, 1.69174165e-01,
          4.42370266e-01, 2.80427217e-01, 2.77146608e-01, 6.11911379e-02,
          2.33310163e-01, 3.94705385e-01, 5.06149471e-01, 1.31866291e-01,
          8.14137328e-03, 1.38920341e-02, 2.24390277e-03, 1.28724035e-02,
          1.80432387e-02, 5.70426643e-01, 5.70426643e-01, 5.70426643e-01,
          1.65780500e-01, 1.81308880e-01, 5.81740618e-01, 2.72805601e-01,
          5.81740618e-01, 3.75360176e-02, 2.46277794e-01, 2.30435401e-01,
          2.59626031e-01, 2.76637495e-01, 2.51614690e-01, 7.68230796e-01,
          2.57492214e-01, 2.11049065e-01, 0., 7.48979151e-02,
          1.76838771e-01, 3.23596656e-01, 2.42841125e-01, 9.75515991e-02,
          4.44353148e-02, 5.84427640e-03, 1.38754085e-01, 1.08615279e-01,
          5.95018804e-01, 5.95018804e-01, 4.29438323e-01, 2.47220527e-02,
          1.68243289e-01, 6.10541642e-01, 6.10541642e-01, 4.66425180e-01,
          2.52834857e-02, 2.37399973e-02, 8.62012524e-03, 2.52024513e-02,
          1.27241239e-01, 5.25883257e-01, 7.37101197e-01, 0.,
          3.22841525e-01, 1.74298286e-01, 5.72237233e-03, 6.74160616e-03,
          1.05278447e-01, 5.96629858e-01, 8.66385102e-02, 1.27586469e-01,
          0., 1.61632106e-01, 9.38287750e-02, 6.16796494e-01,
          1.58651769e-01, 3.93819362e-01, 2.47220527e-02, 1.68243289e-01,
          6.10541642e-01, 6.10541642e-01, 4.66425180e-01, 2.52834857e-02,
          2.37399973e-02, 8.62012524e-03, 2.52024513e-02, 1.27241239e-01,
          5.25883257e-01, 7.37101197e-01, 0., 3.22841525e-01,
          1.74298286e-01, 5.72237233e-03, 6.74160616e-03, 1.05278447e-01,
          5.96629858e-01, 8.66385102e-02, 1.27586469e-01, 0.,
          1.61632106e-01, 9.38287750e-02, 6.16796494e-01, 1.58651769e-01,
          3.93819362e-01, 1.03983078e-02, 1.30955115e-01, 6.65031552e-01,
          6.65031552e-01, 3.02159667e-01, 6.75139576e-03, 1.09614311e-02,
          3.57004837e-03, 9.51404497e-03, 2.43759472e-02, 2.87423790e-01,
          6.30640209e-01, 6.30640209e-01, 3.32572281e-01, 6.32632747e-02,
          1.30375223e-02, 6.00836053e-03, 1.64395906e-02, 1.25551149e-01,
          7.43301362e-02, 2.94263542e-01, 1.63641363e-01, 9.04155672e-01,
          7.68035725e-02, 7.59376734e-02, 2.58833300e-02, 1.27380922e-01,
          5.48299253e-02, 1.98983878e-01, 6.13351464e-01, 6.13351464e-01,
          4.37881678e-01, 2.30275709e-02, 5.99135719e-02, 3.14548239e-02,
          4.50047627e-02, 1.56050371e-02, 2.46939316e-01, 6.26905084e-01,
          6.26905084e-01, 3.82075846e-01, 6.78632874e-03, 1.15834922e-02,
          1.10812886e-02, 1.46061070e-02, 2.99488544e-01, 3.50282818e-01,
          6.77950799e-01, 1.95880041e-01, 4.28372085e-01, 1.53608754e-01,
          8.06196034e-02, 1.09684117e-01, 2.38883272e-01, 5.48299253e-02,
          1.98983878e-01, 6.13351464e-01, 6.13351464e-01, 4.37881678e-01,
          2.30275709e-02, 5.99135719e-02, 3.14548239e-02, 4.50047627e-02,
          1.56050371e-02, 2.46939316e-01, 6.26905084e-01, 6.26905084e-01,
          3.82075846e-01, 6.78632874e-03, 1.15834922e-02, 1.10812886e-02,
          1.46061070e-02, 2.99488544e-01, 3.50282818e-01, 6.77950799e-01,
          1.95880041e-01, 4.28372085e-01, 1.53608754e-01, 8.06196034e-02,
          1.09684117e-01, 2.38883272e-01, 7.93600082e-02, 2.44884178e-01,
          5.47906458e-01, 5.47906458e-01, 5.47906458e-01, 6.11780807e-02,
          1.32252544e-01, 6.04625717e-02, 5.26168570e-02, 8.31612106e-03,
          1.50506511e-01, 5.69043100e-01, 5.69043100e-01, 5.69043100e-01,
          1.44787264e-04, 2.13256199e-03, 3.65108252e-03, 1.21729374e-02,
          2.64163725e-02, 1.70588851e-01, 5.66791594e-01, 5.66791594e-01,
          5.66791594e-01, 2.38102535e-03, 2.38383953e-02, 1.12064071e-02,
          9.17213690e-03, 1.56413645e-01, 4.10877734e-01, 5.30423582e-01,
          5.30423582e-01, 3.77693653e-01, 2.56332159e-02, 0.,
          4.94785309e-02, 3.04895312e-01, 8.54160562e-02, 1.93169951e-01,
          5.51711619e-01, 5.51711619e-01, 5.51711619e-01, 9.38147679e-03,
          4.54057008e-02, 1.37418762e-01, 1.25256389e-01, 1.06699169e-02,
          1.17945261e-01, 5.71355462e-01, 5.71355462e-01, 5.71355462e-01,
          6.95749419e-03, 2.00196765e-02, 1.95221640e-02, 9.90737043e-03,
          1.56413645e-01, 4.10877734e-01, 5.30423582e-01, 5.30423582e-01,
          3.77693653e-01, 2.56332159e-02, 0., 4.94785309e-02,
          3.04895312e-01, 8.54160562e-02, 1.93169951e-01, 5.51711619e-01,
          5.51711619e-01, 5.51711619e-01, 9.38147679e-03, 4.54057008e-02,
          1.37418762e-01, 1.25256389e-01, 1.06699169e-02, 1.17945261e-01,
          5.71355462e-01, 5.71355462e-01, 5.71355462e-01, 6.95749419e-03,
          2.00196765e-02, 1.95221640e-02, 9.90737043e-03, 1.62719324e-01,
          5.47626674e-01, 5.47626674e-01, 4.74346876e-02, 5.11332989e-01,
          2.35324621e-01, 4.25644405e-03, 7.59107023e-02, 2.08312184e-01,
          3.66556466e-01, 3.66556466e-01, 3.66556466e-01, 3.66556466e-01,
          3.66556466e-01, 3.66556466e-01, 2.75057167e-01, 1.81919768e-01,
          2.85314918e-01, 7.39296228e-02, 3.30885798e-01, 5.32571316e-01,
          5.32571316e-01, 5.32571316e-01, 1.50370762e-01, 5.25108501e-02,
          2.26539560e-02, 5.43309860e-02, 4.11576591e-02, 5.41817069e-01,
          5.86366653e-01, 2.58865267e-01, 4.66603935e-01, 2.38962784e-01,
          3.40630002e-02, 7.10079446e-02, 8.38058665e-02, 3.23923409e-01,
          3.78616035e-01, 3.78616035e-01, 3.78616035e-01, 3.78616035e-01,
          3.78616035e-01, 1.69941485e-01, 2.31960565e-01, 3.03075403e-01,
          2.81112403e-01, 3.92858058e-01, 4.35998499e-01, 4.35998499e-01,
          4.35998499e-01, 3.06557894e-01, 1.54229268e-01, 8.79051015e-02,
          2.57890433e-01, 1.03861503e-01, 8.29043612e-03, 2.52708532e-02,
          9.69120883e-04, 6.75354749e-02, 2.84645543e-03, 5.71032166e-01,
          5.71032166e-01, 5.71032166e-01, 4.68109936e-01, 7.89140612e-02,
          2.79961407e-01, 1.37101367e-01, 1.00608930e-01, 7.27447420e-02,
          4.68109936e-01, 4.68109936e-01, 4.68109936e-01, 3.90648127e-01,
          5.61742373e-02, 1.68522701e-01, 1.89972922e-01, 6.33437932e-02,
          0., 2.28246391e-01, 6.67722166e-01, 5.20692885e-01,
          7.03869760e-02, 3.73039744e-03, 1.18407747e-02, 5.72450412e-03,
          8.00815225e-03, 1.85418762e-02, 5.74084222e-01, 5.74084222e-01,
          5.74084222e-01, 1.59071058e-01, 5.98041937e-02, 2.14058667e-01,
          1.09905519e-01, 1.87027469e-01, 1.25818193e-01, 5.34500420e-01,
          5.34500420e-01, 5.34500420e-01, 2.69082397e-01, 6.28151372e-02,
          1.88445419e-01, 2.65238613e-01, 4.55266953e-01, 4.69077006e-02,
          4.55266953e-01, 4.55266953e-01, 4.35010254e-01, 1.31866291e-01,
          8.14137328e-03, 1.38920341e-02, 2.24390277e-03, 1.28724035e-02,
          1.80432387e-02, 5.70426643e-01, 5.70426643e-01, 5.70426643e-01,
          2.57404298e-01, 5.36876498e-03, 1.36075281e-02, 3.42720537e-03,
          4.40040790e-02, 6.31746203e-02, 5.54392636e-01, 5.54392636e-01,
          5.54392636e-01, 4.74887192e-01, 9.95427370e-02, 2.02571377e-01,
          1.21452972e-01, 9.23417881e-02, 1.37708679e-01, 4.74887192e-01,
          4.74887192e-01, 4.74887192e-01, 1.31866291e-01, 8.14137328e-03,
          1.38920341e-02, 2.24390277e-03, 1.28724035e-02, 1.80432387e-02,
          5.70426643e-01, 5.70426643e-01, 5.70426643e-01, 2.57404298e-01,
          5.36876498e-03, 1.36075281e-02, 3.42720537e-03, 4.40040790e-02,
          6.31746203e-02, 5.54392636e-01, 5.54392636e-01, 5.54392636e-01,
          4.74887192e-01, 9.95427370e-02, 2.02571377e-01, 1.21452972e-01,
          9.23417881e-02, 1.37708679e-01, 4.74887192e-01, 4.74887192e-01,
          4.74887192e-01, 2.42841125e-01, 9.75515991e-02, 4.44353148e-02,
          5.84427640e-03, 1.38754085e-01, 1.08615279e-01, 5.95018804e-01,
          5.95018804e-01, 4.29438323e-01, 4.61003482e-01, 7.03230919e-03,
          6.33866806e-03, 5.77934785e-03, 5.59930271e-03, 1.18388562e-02,
          5.10581970e-01, 5.10581970e-01, 5.10581970e-01, 4.68541533e-01,
          1.81104206e-02, 6.44376054e-02, 3.17912325e-02, 1.98953114e-02,
          2.82958485e-02, 5.06203532e-01, 5.06203532e-01, 5.06203532e-01,
          5.96629858e-01, 8.66385102e-02, 1.27586469e-01, 0.,
          1.61632106e-01, 9.38287750e-02, 6.16796494e-01, 1.58651769e-01,
          3.93819362e-01, 3.06028783e-01, 1.61161944e-02, 2.12930888e-02,
          0., 2.97890659e-02, 2.31120773e-02, 5.47340810e-01,
          5.47340810e-01, 5.47340810e-01, 4.05604780e-01, 6.14217308e-04,
          1.33960564e-02, 8.69400974e-04, 7.69009069e-03, 1.59831736e-02,
          5.25907934e-01, 5.25907934e-01, 5.25907934e-01, 5.96629858e-01,
          8.66385102e-02, 1.27586469e-01, 0., 1.61632106e-01,
          9.38287750e-02, 6.16796494e-01, 1.58651769e-01, 3.93819362e-01,
          3.06028783e-01, 1.61161944e-02, 2.12930888e-02, 0.,
          2.97890659e-02, 2.31120773e-02, 5.47340810e-01, 5.47340810e-01,
          5.47340810e-01, 4.05604780e-01, 6.14217308e-04, 1.33960564e-02,
          8.69400974e-04, 7.69009069e-03, 1.59831736e-02, 5.25907934e-01,
          5.25907934e-01, 5.25907934e-01, 1.25551149e-01, 7.43301362e-02,
          2.94263542e-01, 1.63641363e-01, 9.04155672e-01, 7.68035725e-02,
          7.59376734e-02, 2.58833300e-02, 1.27380922e-01, 7.28534237e-02,
          5.39583005e-02, 1.61874920e-01, 0., 1.76172987e-01,
          3.95445563e-02, 8.86503816e-01, 1.76804587e-01, 2.37844914e-01,
          4.97076750e-01, 1.35903833e-02, 4.85857204e-02, 1.57970432e-02,
          6.19698018e-02, 7.69171678e-03, 4.97076750e-01, 4.97076750e-01,
          4.97076750e-01, 2.99488544e-01, 3.50282818e-01, 6.77950799e-01,
          1.95880041e-01, 4.28372085e-01, 1.53608754e-01, 8.06196034e-02,
          1.09684117e-01, 2.38883272e-01, 1.60915524e-01, 2.12365404e-01,
          6.13807917e-01, 1.15195908e-01, 6.60327971e-01, 0.,
          5.64413257e-02, 1.88137759e-02, 1.52965650e-01, 5.32915711e-01,
          7.41638094e-02, 2.22491443e-01, 6.12081178e-02, 2.50481933e-01,
          0., 3.13113987e-01, 3.89853597e-01, 5.32915711e-01,
          2.99488544e-01, 3.50282818e-01, 6.77950799e-01, 1.95880041e-01,
          4.28372085e-01, 1.53608754e-01, 8.06196034e-02, 1.09684117e-01,
          2.38883272e-01, 1.60915524e-01, 2.12365404e-01, 6.13807917e-01,
          1.15195908e-01, 6.60327971e-01, 0., 5.64413257e-02,
          1.88137759e-02, 1.52965650e-01, 5.32915711e-01, 7.41638094e-02,
          2.22491443e-01, 6.12081178e-02, 2.50481933e-01, 0.,
          3.13113987e-01, 3.89853597e-01, 5.32915711e-01, 2.64163725e-02,
          1.70588851e-01, 5.66791594e-01, 5.66791594e-01, 5.66791594e-01,
          2.38102535e-03, 2.38383953e-02, 1.12064071e-02, 9.17213690e-03,
          6.57188520e-02, 1.26896754e-01, 3.65400016e-01, 2.07900673e-01,
          7.31682122e-01, 0., 2.93272853e-01, 3.91725540e-01,
          1.43939301e-01, 6.63096383e-02, 2.36641422e-01, 7.10879147e-01,
          1.61559448e-01, 5.67651570e-01, 0., 4.80750464e-02,
          1.61759362e-01, 2.04325378e-01, 1.06699169e-02, 1.17945261e-01,
          5.71355462e-01, 5.71355462e-01, 5.71355462e-01, 6.95749419e-03,
          2.00196765e-02, 1.95221640e-02, 9.90737043e-03, 6.42544255e-02,
          2.73481756e-01, 5.40979147e-01, 5.40979147e-01, 5.40979147e-01,
          4.16685529e-02, 6.39767721e-02, 1.28075421e-01, 1.24373220e-01,
          3.06675673e-01, 3.96965116e-01, 6.75797999e-01, 1.42772108e-01,
          4.11656052e-01, 1.27747282e-01, 4.42992486e-02, 5.44778481e-02,
          2.59026885e-01, 1.06699169e-02, 1.17945261e-01, 5.71355462e-01,
          5.71355462e-01, 5.71355462e-01, 6.95749419e-03, 2.00196765e-02,
          1.95221640e-02, 9.90737043e-03, 6.42544255e-02, 2.73481756e-01,
          5.40979147e-01, 5.40979147e-01, 5.40979147e-01, 4.16685529e-02,
          6.39767721e-02, 1.28075421e-01, 1.24373220e-01, 3.06675673e-01,
          3.96965116e-01, 6.75797999e-01, 1.42772108e-01, 4.11656052e-01,
          1.27747282e-01, 4.42992486e-02, 5.44778481e-02, 2.59026885e-01,
          7.39296228e-02, 3.30885798e-01, 5.32571316e-01, 5.32571316e-01,
          5.32571316e-01, 1.50370762e-01, 5.25108501e-02, 2.26539560e-02,
          5.43309860e-02, 6.15983689e-03, 1.77281126e-01, 5.66376686e-01,
          5.66376686e-01, 5.66376686e-01, 2.08706278e-02, 4.38867882e-03,
          3.15737654e-03, 8.07818212e-03, 1.12531977e-02, 1.77373245e-01,
          5.66250503e-01, 5.66250503e-01, 5.66250503e-01, 1.22372722e-02,
          6.49205642e-03, 9.80282575e-03, 2.34703254e-02, 2.81112403e-01,
          3.92858058e-01, 4.35998499e-01, 4.35998499e-01, 4.35998499e-01,
          3.06557894e-01, 1.54229268e-01, 8.79051015e-02, 2.57890433e-01,
          5.06649353e-02, 1.54893786e-01, 5.64970315e-01, 5.64970315e-01,
          5.64970315e-01, 7.57663399e-02, 1.74614303e-02, 5.87991159e-03,
          6.43810406e-02, 3.02347029e-03, 9.17625204e-02, 5.73051751e-01,
          5.73051751e-01, 5.73051751e-01, 2.48947106e-02, 6.39957050e-03,
          2.17505777e-03, 4.23372025e-03, 3.90648127e-01, 5.61742373e-02,
          1.68522701e-01, 1.89972922e-01, 6.33437932e-02, 0.,
          2.28246391e-01, 6.67722166e-01, 5.20692885e-01, 0., 0., 0., 0.,
          0., 0., 0., 0., 0., 0., 0., 0., 0., 0., 0., 0., 0., 0.,
          2.69082397e-01, 6.28151372e-02, 1.88445419e-01, 2.65238613e-01,
          4.55266953e-01, 4.69077006e-02, 4.55266953e-01, 4.55266953e-01,
          4.35010254e-01, 0., 0., 0., 0., 0., 0., 0., 0., 0., 0., 0., 0.,
          0., 0., 0., 0., 0., 0., 4.74887192e-01, 9.95427370e-02,
          2.02571377e-01, 1.21452972e-01, 9.23417881e-02, 1.37708679e-01,
          4.74887192e-01, 4.74887192e-01, 4.74887192e-01, 3.80609214e-01,
          3.80609214e-01, 3.80609214e-01, 2.52298146e-01, 1.64073914e-01,
          1.90899789e-01, 3.80609214e-01, 3.80609214e-01, 3.80609214e-01,
          2.46512786e-01, 2.66478844e-02, 0., 1.34725571e-01,
          1.21683925e-01, 0., 5.75082660e-01, 6.84921920e-01,
          3.14464182e-01, 4.74887192e-01, 9.95427370e-02, 2.02571377e-01,
          1.21452972e-01, 9.23417881e-02, 1.37708679e-01, 4.74887192e-01,
          4.74887192e-01, 4.74887192e-01, 3.80609214e-01, 3.80609214e-01,
          3.80609214e-01, 2.52298146e-01, 1.64073914e-01, 1.90899789e-01,
          3.80609214e-01, 3.80609214e-01, 3.80609214e-01, 2.46512786e-01,
          2.66478844e-02, 0., 1.34725571e-01, 1.21683925e-01, 0.,
          5.75082660e-01, 6.84921920e-01, 3.14464182e-01, 4.68541533e-01,
          1.81104206e-02, 6.44376054e-02, 3.17912325e-02, 1.98953114e-02,
          2.82958485e-02, 5.06203532e-01, 5.06203532e-01, 5.06203532e-01,
          3.70168835e-01, 2.07381204e-01, 3.08597773e-01, 2.54287243e-01,
          3.43157232e-01, 3.57132286e-01, 3.70168835e-01, 3.70168835e-01,
          3.70168835e-01, 4.53118324e-01, 1.92426533e-01, 7.63677210e-02,
          1.37905359e-01, 3.35158348e-01, 0., 4.53118324e-01,
          4.53118324e-01, 4.53118324e-01, 4.05604780e-01, 6.14217308e-04,
          1.33960564e-02, 8.69400974e-04, 7.69009069e-03, 1.59831736e-02,
          5.25907934e-01, 5.25907934e-01, 5.25907934e-01, 4.97092098e-01,
          2.74099410e-02, 4.37946357e-02, 7.40034413e-03, 4.61908393e-02,
          4.21353988e-02, 4.97092098e-01, 4.97092098e-01, 4.97092098e-01,
          3.99558753e-01, 2.84798801e-01, 2.86845624e-01, 3.98145020e-02,
          3.99558753e-01, 1.81097642e-01, 3.99558753e-01, 3.99558753e-01,
          3.99558753e-01, 4.05604780e-01, 6.14217308e-04, 1.33960564e-02,
          8.69400974e-04, 7.69009069e-03, 1.59831736e-02, 5.25907934e-01,
          5.25907934e-01, 5.25907934e-01, 4.97092098e-01, 2.74099410e-02,
          4.37946357e-02, 7.40034413e-03, 4.61908393e-02, 4.21353988e-02,
          4.97092098e-01, 4.97092098e-01, 4.97092098e-01, 3.99558753e-01,
          2.84798801e-01, 2.86845624e-01, 3.98145020e-02, 3.99558753e-01,
          1.81097642e-01, 3.99558753e-01, 3.99558753e-01, 3.99558753e-01,
          4.97076750e-01, 1.35903833e-02, 4.85857204e-02, 1.57970432e-02,
          6.19698018e-02, 7.69171678e-03, 4.97076750e-01, 4.97076750e-01,
          4.97076750e-01, 4.63201433e-01, 2.40308698e-03, 7.26024527e-03,
          7.79277703e-04, 7.42368493e-03, 4.20206552e-03, 5.09973645e-01,
          5.09973645e-01, 5.09973645e-01, 4.96275663e-01, 1.84012335e-02,
          5.79728074e-02, 3.56472321e-02, 6.89692199e-02, 1.25793843e-02,
          4.96275663e-01, 4.96275663e-01, 4.96275663e-01, 5.32915711e-01,
          7.41638094e-02, 2.22491443e-01, 6.12081178e-02, 2.50481933e-01,
          0., 3.13113987e-01, 3.89853597e-01, 5.32915711e-01,
          3.79908502e-01, 1.12012262e-03, 9.03148483e-03, 2.25681881e-03,
          3.60337310e-02, 0., 5.31968296e-01, 5.31968296e-01,
          5.31968296e-01, 4.98691857e-01, 1.67417247e-03, 7.65072461e-03,
          6.02929946e-03, 1.19492738e-02, 2.10401788e-03, 4.98691857e-01,
          4.98691857e-01, 4.98691857e-01, 5.32915711e-01, 7.41638094e-02,
          2.22491443e-01, 6.12081178e-02, 2.50481933e-01, 0.,
          3.13113987e-01, 3.89853597e-01, 5.32915711e-01, 3.79908502e-01,
          1.12012262e-03, 9.03148483e-03, 2.25681881e-03, 3.60337310e-02,
          0., 5.31968296e-01, 5.31968296e-01, 5.31968296e-01,
          4.98691857e-01, 1.67417247e-03, 7.65072461e-03, 6.02929946e-03,
          1.19492738e-02, 2.10401788e-03, 4.98691857e-01, 4.98691857e-01,
          4.98691857e-01, 6.63096383e-02, 2.36641422e-01, 7.10879147e-01,
          1.61559448e-01, 5.67651570e-01, 0., 4.80750464e-02,
          1.61759362e-01, 2.04325378e-01, 3.55159789e-01, 0.,
          2.36356296e-02, 6.28769398e-03, 4.34260726e-01, 0.,
          6.30755305e-01, 2.10251778e-01, 4.70246702e-01, 3.98134977e-01,
          8.95187333e-02, 9.20792818e-02, 6.12380728e-03, 2.29107171e-01,
          2.95895152e-02, 5.49820244e-01, 3.27722222e-01, 5.96600354e-01,
          3.06675673e-01, 3.96965116e-01, 6.75797999e-01, 1.42772108e-01,
          4.11656052e-01, 1.27747282e-01, 4.42992486e-02, 5.44778481e-02,
          2.59026885e-01, 5.60659766e-01, 0., 0., 0., 0., 0., 0., 0.,
          5.60659766e-01, 6.49783969e-01, 0., 0., 0., 0., 0., 0., 0.,
          6.49783969e-01, 3.06675673e-01, 3.96965116e-01, 6.75797999e-01,
          1.42772108e-01, 4.11656052e-01, 1.27747282e-01, 4.42992486e-02,
          5.44778481e-02, 2.59026885e-01, 5.60659766e-01, 0., 0., 0., 0.,
          0., 0., 0., 5.60659766e-01, 6.49783969e-01, 0., 0., 0., 0., 0.,
          0., 0., 6.49783969e-01, 1.12531977e-02, 1.77373245e-01,
          5.66250503e-01, 5.66250503e-01, 5.66250503e-01, 1.22372722e-02,
          6.49205642e-03, 9.80282575e-03, 2.34703254e-02, 0., 0., 0., 0.,
          0., 0., 0., 0., 0., 0., 0., 0., 0., 0., 0., 0., 0., 0.,
          3.02347029e-03, 9.17625204e-02, 5.73051751e-01, 5.73051751e-01,
          5.73051751e-01, 2.48947106e-02, 6.39957050e-03, 2.17505777e-03,
          4.23372025e-03, 0., 3.40116799e-01, 5.41202962e-01,
          5.41202962e-01, 5.41202962e-01, 1.45690218e-02, 1.27650204e-03,
          4.25500650e-04, 0., 0., 4.36277837e-01, 6.71886206e-01, 0.,
          4.47382450e-01, 0., 9.59815979e-02, 3.19938697e-02, 0., 0., 0.,
          0., 0., 0., 0., 0., 0., 0., 0., 0., 0., 0., 0., 0., 0., 0., 0.,
          0., 0., 0., 0., 0., 0., 0., 0., 0., 0., 0., 0., 0., 0., 0., 0.,
          0., 0., 0., 0., 0., 0., 0., 0., 0., 0., 0., 0., 0., 0., 0., 0.,
          0., 0., 0., 0., 2.46512786e-01, 2.66478844e-02, 0.,
          1.34725571e-01, 1.21683925e-01, 0., 5.75082660e-01,
          6.84921920e-01, 3.14464182e-01, 0., 0., 0., 0., 0., 0., 0., 0.,
          0., 0., 0., 0., 0., 0., 0., 0., 0., 0., 2.46512786e-01,
          2.66478844e-02, 0., 1.34725571e-01, 1.21683925e-01, 0.,
          5.75082660e-01, 6.84921920e-01, 3.14464182e-01, 0., 0., 0., 0.,
          0., 0., 0., 0., 0., 0., 0., 0., 0., 0., 0., 0., 0., 0.,
          4.53118324e-01, 1.92426533e-01, 7.63677210e-02, 1.37905359e-01,
          3.35158348e-01, 0., 4.53118324e-01, 4.53118324e-01,
          4.53118324e-01, 6.57765865e-01, 1.83884889e-01, 0., 0., 0., 0.,
          4.52235878e-01, 1.50745288e-01, 5.47322631e-01, 0., 0., 0., 0.,
          0., 0., 0., 0., 0., 3.99558753e-01, 2.84798801e-01,
          2.86845624e-01, 3.98145020e-02, 3.99558753e-01, 1.81097642e-01,
          3.99558753e-01, 3.99558753e-01, 3.99558753e-01, 3.81893128e-01,
          3.26342970e-01, 8.51254836e-02, 1.93721786e-01, 3.40145171e-01,
          3.81893128e-01, 3.81893128e-01, 3.81893128e-01, 3.81893128e-01,
          0., 0., 0., 0., 0., 0., 9.39170837e-01, 3.13056946e-01, 0.,
          3.99558753e-01, 2.84798801e-01, 2.86845624e-01, 3.98145020e-02,
          3.99558753e-01, 1.81097642e-01, 3.99558753e-01, 3.99558753e-01,
          3.99558753e-01, 3.81893128e-01, 3.26342970e-01, 8.51254836e-02,
          1.93721786e-01, 3.40145171e-01, 3.81893128e-01, 3.81893128e-01,
          3.81893128e-01, 3.81893128e-01, 0., 0., 0., 0., 0., 0.,
          9.39170837e-01, 3.13056946e-01, 0., 4.96275663e-01,
          1.84012335e-02, 5.79728074e-02, 3.56472321e-02, 6.89692199e-02,
          1.25793843e-02, 4.96275663e-01, 4.96275663e-01, 4.96275663e-01,
          4.84801501e-01, 5.45684211e-02, 1.16491623e-01, 4.93361056e-02,
          1.66959897e-01, 9.03894529e-02, 4.84801501e-01, 4.84801501e-01,
          4.84801501e-01, 5.12149513e-01, 1.18549578e-01, 3.67198974e-01,
          1.15475263e-02, 8.44992101e-02, 0., 2.27664873e-01,
          5.12149513e-01, 5.12149513e-01, 4.98691857e-01, 1.67417247e-03,
          7.65072461e-03, 6.02929946e-03, 1.19492738e-02, 2.10401788e-03,
          4.98691857e-01, 4.98691857e-01, 4.98691857e-01, 4.98429984e-01,
          4.71233623e-03, 3.05771735e-02, 1.79451741e-02, 3.59757966e-03,
          3.89020075e-04, 4.98429984e-01, 4.98429984e-01, 4.98429984e-01,
          4.98548508e-01, 7.73307774e-03, 2.47753561e-02, 1.57575915e-03,
          1.19253770e-02, 0., 4.98548508e-01, 4.98548508e-01,
          4.98548508e-01, 4.98691857e-01, 1.67417247e-03, 7.65072461e-03,
          6.02929946e-03, 1.19492738e-02, 2.10401788e-03, 4.98691857e-01,
          4.98691857e-01, 4.98691857e-01, 4.98429984e-01, 4.71233623e-03,
          3.05771735e-02, 1.79451741e-02, 3.59757966e-03, 3.89020075e-04,
          4.98429984e-01, 4.98429984e-01, 4.98429984e-01, 4.98548508e-01,
          7.73307774e-03, 2.47753561e-02, 1.57575915e-03, 1.19253770e-02,
          0., 4.98548508e-01, 4.98548508e-01, 4.98548508e-01,
          3.98134977e-01, 8.95187333e-02, 9.20792818e-02, 6.12380728e-03,
          2.29107171e-01, 2.95895152e-02, 5.49820244e-01, 3.27722222e-01,
          5.96600354e-01, 6.65430427e-01, 1.82251427e-02, 2.76358277e-02,
          0., 3.43247727e-02, 1.72727893e-03, 2.54176021e-01,
          2.02185392e-01, 6.65430427e-01, 5.03742278e-01, 3.46796412e-04,
          1.04038930e-03, 0., 1.54723821e-03, 0., 4.83421803e-01,
          5.03742278e-01, 5.03742278e-01, 6.49783969e-01, 0., 0., 0., 0.,
          0., 0., 0., 6.49783969e-01, 6.35589182e-01, 0., 0., 0., 0., 0.,
          0., 0., 6.35589182e-01, 7.06244230e-01, 8.41152621e-04, 0., 0.,
          1.63789969e-02, 9.10227001e-03, 2.26049703e-02, 3.23363580e-03,
          7.01944530e-01, 6.49783969e-01, 0., 0., 0., 0., 0., 0., 0.,
          6.49783969e-01, 6.35589182e-01, 0., 0., 0., 0., 0., 0., 0.,
          6.35589182e-01, 7.06244230e-01, 8.41152621e-04, 0., 0.,
          1.63789969e-02, 9.10227001e-03, 2.26049703e-02, 3.23363580e-03,
          7.01944530e-01, 0., 0., 0., 0., 0., 0., 0., 0., 0., 0., 0., 0.,
          0., 0., 0., 0., 0., 0., 3.22481364e-01, 2.41903625e-02, 0., 0.,
          1.77458107e-01, 2.74778098e-01, 8.55684698e-01, 1.41140029e-01,
          7.92196393e-02, 0., 4.36277837e-01, 6.71886206e-01, 0.,
          4.47382450e-01, 0., 9.59815979e-02, 3.19938697e-02, 0.,
          1.90282688e-01, 1.08779155e-01, 6.88983575e-02, 1.97457418e-01,
          6.28652394e-01, 3.83321822e-01, 5.77580512e-01, 1.20816953e-01,
          2.31687855e-02, 1.95355527e-03, 1.53399969e-03, 2.98274751e-03,
          2.04986967e-02, 5.50344050e-01, 5.50344050e-01, 5.50344050e-01,
          2.92288780e-01, 6.49964612e-04, 0., 0., 0., 0., 0., 0., 0., 0.,
          0., 0., 0., 0., 0., 0., 0., 0., 0., 0., 0., 0., 0., 0., 0., 0.,
          0., 0., 0., 0., 0., 0., 0., 0., 0., 0., 0., 0., 0., 0., 0., 0.,
          0., 0., 0., 0., 0., 0., 0., 0., 0., 0., 0., 0., 0., 0., 0., 0.,
          0., 0., 0., 0., 0., 0., 0., 0., 0., 0., 0., 0., 0., 0., 0., 0.,
          0., 0., 0., 0., 0., 0., 0., 0., 0., 0., 0., 0., 0., 0., 0., 0.,
          0., 0., 0., 0., 0., 0., 0., 0., 0., 0., 0., 0., 0., 0., 0., 0.,
          0., 0., 0., 0., 0., 0., 0., 0., 0., 0., 0., 0., 0., 0., 0., 0.,
          0., 0., 0., 0., 0., 0., 0., 0., 0., 0., 0., 0., 0., 0., 0., 0.,
          0., 0., 0., 0., 0., 9.39170837e-01, 3.13056946e-01, 0., 0., 0.,
          0., 0., 0., 0., 0., 0., 0., 0., 0., 0., 0., 0., 0., 0., 0., 0.,
          0., 0., 0., 0., 0., 0., 9.39170837e-01, 3.13056946e-01, 0., 0.,
          0., 0., 0., 0., 0., 0., 0., 0., 0., 0., 0., 0., 0., 0., 0., 0.,
          0., 5.12149513e-01, 1.18549578e-01, 3.67198974e-01,
          1.15475263e-02, 8.44992101e-02, 0., 2.27664873e-01,
          5.12149513e-01, 5.12149513e-01, 4.45852786e-01, 5.80129214e-02,
          1.74038753e-01, 0., 2.72315174e-01, 0., 6.25945568e-01,
          2.63478100e-01, 4.75317299e-01, 0., 0., 0., 0., 0., 0., 0., 0.,
          0., 4.98548508e-01, 7.73307774e-03, 2.47753561e-02,
          1.57575915e-03, 1.19253770e-02, 0., 4.98548508e-01,
          4.98548508e-01, 4.98548508e-01, 6.22137249e-01, 1.41848868e-03,
          4.25546616e-03, 0., 1.93782337e-02, 0., 2.72968173e-01,
          3.80488604e-01, 6.22137249e-01, 7.04615593e-01, 0., 0., 0., 0.,
          0., 0., 0., 7.04615593e-01, 4.98548508e-01, 7.73307774e-03,
          2.47753561e-02, 1.57575915e-03, 1.19253770e-02, 0.,
          4.98548508e-01, 4.98548508e-01, 4.98548508e-01, 6.22137249e-01,
          1.41848868e-03, 4.25546616e-03, 0., 1.93782337e-02, 0.,
          2.72968173e-01, 3.80488604e-01, 6.22137249e-01, 7.04615593e-01,
          0., 0., 0., 0., 0., 0., 0., 7.04615593e-01, 5.03742278e-01,
          3.46796412e-04, 1.04038930e-03, 0., 1.54723821e-03, 0.,
          4.83421803e-01, 5.03742278e-01, 5.03742278e-01, 6.99988127e-01,
          0., 0., 0., 0., 0., 3.89954299e-02, 1.07354112e-01,
          6.99988127e-01, 7.04610527e-01, 7.95363681e-04, 7.97896428e-05,
          1.96325956e-04, 1.08654401e-03, 2.07912549e-03, 2.78322282e-03,
          6.45492517e-04, 7.04610527e-01, 7.06244230e-01, 8.41152621e-04,
          0., 0., 1.63789969e-02, 9.10227001e-03, 2.26049703e-02,
          3.23363580e-03, 7.01944530e-01, 6.86949432e-01, 2.51567792e-02,
          3.43177319e-02, 0., 2.05771551e-01, 1.17534613e-02,
          6.89151958e-02, 1.74175333e-02, 6.86949432e-01, 2.30570123e-01,
          1.59004088e-02, 1.29383923e-02, 2.88458541e-03, 5.31947017e-01,
          5.31947017e-01, 5.31947017e-01, 2.03298226e-01, 2.25529507e-01,
          7.06244230e-01, 8.41152621e-04, 0., 0., 1.63789969e-02,
          9.10227001e-03, 2.26049703e-02, 3.23363580e-03, 7.01944530e-01,
          6.86949432e-01, 2.51567792e-02, 3.43177319e-02, 0.,
          2.05771551e-01, 1.17534613e-02, 6.89151958e-02, 1.74175333e-02,
          6.86949432e-01, 2.30570123e-01, 1.59004088e-02, 1.29383923e-02,
          2.88458541e-03, 5.31947017e-01, 5.31947017e-01, 5.31947017e-01,
          2.03298226e-01, 2.25529507e-01, 3.22481364e-01, 2.41903625e-02,
          0., 0., 1.77458107e-01, 2.74778098e-01, 8.55684698e-01,
          1.41140029e-01, 7.92196393e-02, 5.22901937e-02, 2.91726850e-02,
          1.75708868e-02, 0., 5.62598586e-01, 5.62598586e-01,
          5.62598586e-01, 2.02153698e-01, 8.39705672e-03, 6.84042461e-03,
          9.04856995e-03, 1.56209506e-02, 4.91591915e-03, 5.66058576e-01,
          5.66058576e-01, 5.66058576e-01, 1.80696264e-01, 5.71800536e-03,
          1.95355527e-03, 1.53399969e-03, 2.98274751e-03, 2.04986967e-02,
          5.50344050e-01, 5.50344050e-01, 5.50344050e-01, 2.92288780e-01,
          6.49964612e-04, 2.17826385e-03, 2.25382810e-03, 4.65237303e-03,
          2.37212498e-02, 5.68937719e-01, 5.68937719e-01, 5.68937719e-01,
          1.50414214e-01, 5.44826221e-03, 3.96434739e-02, 5.04692756e-02,
          7.94746876e-02, 5.08734249e-02, 5.50336361e-01, 5.50336361e-01,
          5.50336361e-01, 2.67684191e-01, 3.48718502e-02 ]
      - [ 5.69111228e-01, 5.69111228e-01, 5.69111228e-01, 2.73340773e-02,
          7.82494321e-02, 8.08207691e-03, 6.36921003e-02, 4.16088924e-02,
          9.96542871e-02, 5.74316621e-01, 5.74316621e-01, 5.74316621e-01,
          1.83608700e-02, 1.69837587e-02, 2.36641173e-03, 1.39517179e-02,
          1.98338162e-02, 5.93908168e-02, 3.38111550e-01, 2.89813221e-01,
          5.83605647e-01, 3.37408602e-01, 3.65101904e-01, 1.19330488e-01,
          2.86177069e-01, 2.00024664e-01, 2.68281430e-01, 2.69743979e-01,
          6.77901208e-01, 6.77901208e-01, 7.80585362e-03, 2.94054709e-02,
          4.98849386e-03, 1.34135513e-02, 9.41366609e-03, 1.23136537e-02,
          3.20631772e-01, 4.97831106e-01, 4.97831106e-01, 7.37072676e-02,
          4.97831106e-01, 3.37924987e-01, 1.15763232e-01, 8.76105055e-02,
          8.95146057e-02, 1.02475777e-01, 9.62738395e-02, 1.65688619e-01,
          5.62105656e-01, 7.67839372e-01, 1.53091565e-01, 2.08823048e-02,
          4.18828763e-02, 1.18094377e-01, 2.80278593e-01, 6.11333251e-01,
          6.11333251e-01, 8.20805132e-03, 6.65063784e-02, 2.30823219e-01,
          3.27366590e-01, 5.12880050e-02, 1.77258570e-02, 8.69797356e-03,
          5.33469161e-03, 4.05388959e-02, 1.61963433e-01, 5.64721465e-01,
          5.64721465e-01, 5.64721465e-01, 9.63584036e-02, 1.91117991e-02,
          1.27103389e-03, 1.99818145e-02, 4.58622366e-01, 5.65012634e-01,
          5.65012634e-01, 3.64602566e-01, 1.07579418e-01, 1.52421063e-02,
          2.00823974e-02, 2.80278593e-01, 6.11333251e-01, 6.11333251e-01,
          8.20805132e-03, 6.65063784e-02, 2.30823219e-01, 3.27366590e-01,
          5.12880050e-02, 1.77258570e-02, 8.69797356e-03, 5.33469161e-03,
          4.05388959e-02, 1.61963433e-01, 5.64721465e-01, 5.64721465e-01,
          5.64721465e-01, 9.63584036e-02, 1.91117991e-02, 1.27103389e-03,
          1.99818145e-02, 4.58622366e-01, 5.65012634e-01, 5.65012634e-01,
          3.64602566e-01, 1.07579418e-01, 1.52421063e-02, 2.00823974e-02,
          4.80955355e-02, 4.15316373e-01, 4.95126247e-01, 3.26977670e-03,
          2.88528316e-02, 4.95126247e-01, 4.95126247e-01, 2.86739141e-01,
          4.17335369e-02, 6.79270849e-02, 3.45302932e-02, 1.23518661e-01,
          1.33667141e-01, 2.73684174e-01, 6.15102887e-01, 6.15102887e-01,
          3.41191500e-01, 8.31298754e-02, 1.17375478e-01, 2.80896395e-01,
          4.90197986e-01, 4.90197986e-01, 4.90197986e-01, 2.04341352e-01,
          2.76119560e-01, 2.02125877e-01, 1.50631309e-01, 3.00731566e-02,
          3.50665003e-02, 6.91939369e-02, 0., 8.98740836e-04,
          1.11829124e-01, 6.97430551e-01, 6.97430551e-01, 2.81221811e-02,
          2.12706942e-02, 2.47659218e-02, 7.52073526e-02, 1.63921379e-02,
          1.72957882e-01, 2.02375069e-01, 6.76350355e-01, 6.76350355e-01,
          2.20785923e-02, 1.31519973e-01, 2.95720220e-01, 3.41456562e-01,
          3.72472592e-02, 5.64045846e-01, 2.67535448e-01, 4.52668935e-01,
          3.77583921e-01, 1.85574546e-01, 3.00731566e-02, 3.50665003e-02,
          6.91939369e-02, 0., 8.98740836e-04, 1.11829124e-01,
          6.97430551e-01, 6.97430551e-01, 2.81221811e-02, 2.12706942e-02,
          2.47659218e-02, 7.52073526e-02, 1.63921379e-02, 1.72957882e-01,
          2.02375069e-01, 6.76350355e-01, 6.76350355e-01, 2.20785923e-02,
          1.31519973e-01, 2.95720220e-01, 3.41456562e-01, 3.72472592e-02,
          5.64045846e-01, 2.67535448e-01, 4.52668935e-01, 3.77583921e-01,
          1.85574546e-01, 3.25111719e-03, 5.17758820e-03, 0., 0.,
          7.16409413e-03, 9.06095782e-04, 7.04583943e-01, 7.04583943e-01,
          1.40236662e-04, 9.26923677e-02, 5.33884503e-02, 7.57268956e-03,
          1.77047085e-02, 3.63871232e-02, 2.25937571e-02, 6.97174191e-01,
          6.97174191e-01, 8.53765085e-02, 5.19917250e-01, 3.78545746e-02,
          8.83402973e-02, 2.06536815e-01, 2.13538170e-01, 3.08081079e-02,
          2.92273343e-01, 5.19917250e-01, 5.19917250e-01, 1.72761660e-02,
          1.05042849e-02, 7.49599515e-03, 4.34610434e-03, 1.51307331e-02,
          4.00899583e-03, 7.03911483e-01, 7.03911483e-01, 3.55227143e-02,
          1.39127731e-01, 7.31847733e-02, 1.71787992e-01, 1.16811864e-01,
          1.61026672e-01, 4.40742560e-02, 6.52688086e-01, 6.52688086e-01,
          2.13868409e-01, 2.44155720e-01, 1.27124429e-01, 3.91581208e-01,
          3.91581208e-01, 3.91581208e-01, 1.73286088e-02, 3.91581208e-01,
          3.91581208e-01, 3.91581208e-01, 1.72761660e-02, 1.05042849e-02,
          7.49599515e-03, 4.34610434e-03, 1.51307331e-02, 4.00899583e-03,
          7.03911483e-01, 7.03911483e-01, 3.55227143e-02, 1.39127731e-01,
          7.31847733e-02, 1.71787992e-01, 1.16811864e-01, 1.61026672e-01,
          4.40742560e-02, 6.52688086e-01, 6.52688086e-01, 2.13868409e-01,
          2.44155720e-01, 1.27124429e-01, 3.91581208e-01, 3.91581208e-01,
          3.91581208e-01, 1.73286088e-02, 3.91581208e-01, 3.91581208e-01,
          3.91581208e-01, 1.22784628e-02, 1.40839070e-02, 2.81371232e-02,
          1.06621534e-02, 3.18546146e-02, 1.08594084e-02, 7.01319635e-01,
          7.01319635e-01, 8.31468552e-02, 9.21977758e-02, 5.60082309e-02,
          9.81971249e-02, 7.28868246e-02, 1.07519224e-01, 8.95207077e-02,
          6.84189975e-01, 6.84189975e-01, 1.03785127e-01, 2.59960234e-01,
          1.42162949e-01, 3.64856839e-01, 2.64763683e-01, 3.95624906e-01,
          2.81000674e-01, 3.95624906e-01, 3.95624906e-01, 3.95624906e-01,
          2.28576325e-02, 1.29672423e-01, 5.55530667e-01, 5.75690381e-02,
          2.17485726e-01, 1.64627451e-02, 5.55530667e-01, 5.55530667e-01,
          1.96669400e-02, 3.48046049e-02, 5.00233099e-02, 4.50586006e-02,
          1.66291818e-02, 3.47183049e-02, 1.07573844e-01, 6.97758734e-01,
          6.97758734e-01, 2.24108864e-02, 3.24206442e-01, 3.09467703e-01,
          1.85794339e-01, 8.74385387e-02, 3.90236706e-01, 3.90236706e-01,
          3.90236706e-01, 3.90236706e-01, 3.79364520e-01, 2.28576325e-02,
          1.29672423e-01, 5.55530667e-01, 5.75690381e-02, 2.17485726e-01,
          1.64627451e-02, 5.55530667e-01, 5.55530667e-01, 1.96669400e-02,
          3.48046049e-02, 5.00233099e-02, 4.50586006e-02, 1.66291818e-02,
          3.47183049e-02, 1.07573844e-01, 6.97758734e-01, 6.97758734e-01,
          2.24108864e-02, 3.24206442e-01, 3.09467703e-01, 1.85794339e-01,
          8.74385387e-02, 3.90236706e-01, 3.90236706e-01, 3.90236706e-01,
          3.90236706e-01, 3.79364520e-01, 1.41747436e-02, 3.37831736e-01,
          5.24830997e-01, 6.19637482e-02, 7.34388456e-02, 4.82353240e-01,
          5.24830997e-01, 2.95539886e-01, 1.70641877e-02, 5.07249571e-02,
          2.92163119e-02, 6.58542961e-02, 4.42764945e-02, 7.12872371e-02,
          4.36819494e-01, 6.25380099e-01, 6.25380099e-01, 7.70611390e-02,
          3.47127914e-01, 1.99790135e-01, 2.08153635e-01, 3.96617472e-01,
          3.96617472e-01, 7.59527534e-02, 3.96617472e-01, 3.96617472e-01,
          3.96617472e-01, 4.21955762e-03, 1.77925289e-01, 5.58909833e-01,
          1.01697631e-01, 2.01302376e-02, 5.58909833e-01, 5.58909833e-01,
          1.21314563e-01, 1.17468275e-02, 6.66441619e-02, 3.52395847e-02,
          7.20222145e-02, 9.81359780e-02, 3.45383555e-01, 6.25506222e-01,
          6.25506222e-01, 2.03045189e-01, 1.73840672e-01, 3.48394841e-01,
          2.80765563e-01, 2.76203930e-01, 3.98224890e-01, 3.98224890e-01,
          2.51597315e-01, 3.98224890e-01, 3.98224890e-01, 1.47957310e-01,
          3.38111550e-01, 2.89813221e-01, 5.83605647e-01, 3.37408602e-01,
          3.65101904e-01, 1.19330488e-01, 2.86177069e-01, 2.00024664e-01,
          2.68281430e-01, 3.86034489e-01, 6.14716038e-02, 1.17571056e-01,
          4.68559116e-02, 9.17539373e-02, 9.76949092e-03, 5.22000253e-01,
          5.22000253e-01, 5.22000253e-01, 4.86220539e-01, 6.95686787e-03,
          2.00057030e-02, 1.42327813e-03, 1.76325142e-02, 2.03215913e-03,
          2.32614413e-01, 5.92788041e-01, 5.92788041e-01, 1.02475777e-01,
          9.62738395e-02, 1.65688619e-01, 5.62105656e-01, 7.67839372e-01,
          1.53091565e-01, 2.08823048e-02, 4.18828763e-02, 1.18094377e-01,
          4.31258470e-01, 1.33509412e-01, 4.00528252e-01, 3.32746029e-01,
          3.91433239e-01, 1.29556479e-02, 2.71444798e-01, 1.96015641e-01,
          4.92248535e-01, 4.89512533e-01, 5.81074543e-02, 1.42132699e-01,
          3.47552039e-02, 4.26272362e-01, 0., 2.77447015e-01,
          3.75545889e-01, 5.74573219e-01, 1.27103389e-03, 1.99818145e-02,
          4.58622366e-01, 5.65012634e-01, 5.65012634e-01, 3.64602566e-01,
          1.07579418e-01, 1.52421063e-02, 2.00823974e-02, 3.38161597e-04,
          3.96575816e-02, 5.75210690e-01, 5.75210690e-01, 5.75210690e-01,
          8.02073535e-03, 3.75915482e-03, 6.19035796e-04, 1.61307841e-03,
          1.00822762e-01, 7.66299441e-02, 5.35851955e-01, 5.35851955e-01,
          5.35851955e-01, 8.13897476e-02, 2.33029634e-01, 1.01515405e-01,
          2.14398488e-01, 1.27103389e-03, 1.99818145e-02, 4.58622366e-01,
          5.65012634e-01, 5.65012634e-01, 3.64602566e-01, 1.07579418e-01,
          1.52421063e-02, 2.00823974e-02, 3.38161597e-04, 3.96575816e-02,
          5.75210690e-01, 5.75210690e-01, 5.75210690e-01, 8.02073535e-03,
          3.75915482e-03, 6.19035796e-04, 1.61307841e-03, 1.00822762e-01,
          7.66299441e-02, 5.35851955e-01, 5.35851955e-01, 5.35851955e-01,
          8.13897476e-02, 2.33029634e-01, 1.01515405e-01, 2.14398488e-01,
          1.17375478e-01, 2.80896395e-01, 4.90197986e-01, 4.90197986e-01,
          4.90197986e-01, 2.04341352e-01, 2.76119560e-01, 2.02125877e-01,
          1.50631309e-01, 2.01165956e-02, 9.00953189e-02, 5.70395768e-01,
          5.70395768e-01, 5.70395768e-01, 9.55160260e-02, 2.26456728e-02,
          8.78667086e-03, 3.86033114e-03, 2.22902675e-03, 4.76596951e-02,
          5.74835062e-01, 5.74835062e-01, 5.74835062e-01, 2.51074210e-02,
          2.89989263e-03, 4.46049590e-03, 4.34838748e-03, 1.31519973e-01,
          2.95720220e-01, 3.41456562e-01, 3.72472592e-02, 5.64045846e-01,
          2.67535448e-01, 4.52668935e-01, 3.77583921e-01, 1.85574546e-01,
          5.54116294e-02, 2.61584044e-01, 5.27234793e-01, 5.27234793e-01,
          5.27234793e-01, 2.88110048e-01, 7.46818408e-02, 1.45510286e-02,
          2.26234086e-02, 3.97708341e-02, 1.31471798e-01, 5.65348685e-01,
          5.65348685e-01, 5.65348685e-01, 7.36039802e-02, 3.27710658e-02,
          6.24578260e-02, 7.89822042e-02, 1.31519973e-01, 2.95720220e-01,
          3.41456562e-01, 3.72472592e-02, 5.64045846e-01, 2.67535448e-01,
          4.52668935e-01, 3.77583921e-01, 1.85574546e-01, 5.54116294e-02,
          2.61584044e-01, 5.27234793e-01, 5.27234793e-01, 5.27234793e-01,
          2.88110048e-01, 7.46818408e-02, 1.45510286e-02, 2.26234086e-02,
          3.97708341e-02, 1.31471798e-01, 5.65348685e-01, 5.65348685e-01,
          5.65348685e-01, 7.36039802e-02, 3.27710658e-02, 6.24578260e-02,
          7.89822042e-02, 5.19917250e-01, 3.78545746e-02, 8.83402973e-02,
          2.06536815e-01, 2.13538170e-01, 3.08081079e-02, 2.92273343e-01,
          5.19917250e-01, 5.19917250e-01, 1.91788316e-01, 2.65285194e-01,
          6.48097336e-01, 6.48097336e-01, 0., 0., 9.26006362e-02,
          3.08668818e-02, 1.91788316e-01, 3.31630081e-01, 3.70612472e-01,
          3.70612472e-01, 3.70612472e-01, 3.70612472e-01, 1.74644008e-01,
          2.76117384e-01, 3.31503063e-01, 3.46797913e-01, 2.44155720e-01,
          1.27124429e-01, 3.91581208e-01, 3.91581208e-01, 3.91581208e-01,
          1.73286088e-02, 3.91581208e-01, 3.91581208e-01, 3.91581208e-01,
          8.77242759e-02, 0., 9.70126502e-03, 6.80573136e-02,
          1.13759808e-01, 0., 8.83626163e-01, 4.21105295e-01,
          8.77242759e-02, 0., 5.01905009e-02, 2.58869022e-01,
          6.36049509e-01, 6.36049509e-01, 3.12753201e-01, 1.24364004e-01,
          4.14546654e-02, 0., 2.44155720e-01, 1.27124429e-01,
          3.91581208e-01, 3.91581208e-01, 3.91581208e-01, 1.73286088e-02,
          3.91581208e-01, 3.91581208e-01, 3.91581208e-01, 8.77242759e-02,
          0., 9.70126502e-03, 6.80573136e-02, 1.13759808e-01, 0.,
          8.83626163e-01, 4.21105295e-01, 8.77242759e-02, 0.,
          5.01905009e-02, 2.58869022e-01, 6.36049509e-01, 6.36049509e-01,
          3.12753201e-01, 1.24364004e-01, 4.14546654e-02, 0.,
          2.59960234e-01, 1.42162949e-01, 3.64856839e-01, 2.64763683e-01,
          3.95624906e-01, 2.81000674e-01, 3.95624906e-01, 3.95624906e-01,
          3.95624906e-01, 1.10190473e-02, 0., 0., 0., 2.56976277e-01,
          1.98454976e-01, 7.82040775e-01, 4.98358101e-01, 1.59434691e-01,
          0., 0., 0., 0., 0., 0., 0., 0., 0., 3.24206442e-01,
          3.09467703e-01, 1.85794339e-01, 8.74385387e-02, 3.90236706e-01,
          3.90236706e-01, 3.90236706e-01, 3.90236706e-01, 3.79364520e-01,
          0., 0., 0., 0., 9.39830914e-02, 2.77712107e-01, 5.95930159e-01,
          7.29412258e-01, 1.00468725e-01, 0., 0., 0., 0., 0., 0., 0., 0.,
          0., 3.24206442e-01, 3.09467703e-01, 1.85794339e-01,
          8.74385387e-02, 3.90236706e-01, 3.90236706e-01, 3.90236706e-01,
          3.90236706e-01, 3.79364520e-01, 0., 0., 0., 0., 9.39830914e-02,
          2.77712107e-01, 5.95930159e-01, 7.29412258e-01, 1.00468725e-01,
          0., 0., 0., 0., 0., 0., 0., 0., 0., 3.47127914e-01,
          1.99790135e-01, 2.08153635e-01, 3.96617472e-01, 3.96617472e-01,
          7.59527534e-02, 3.96617472e-01, 3.96617472e-01, 3.96617472e-01,
          0., 0., 0., 0., 1.85909420e-01, 0., 7.15218306e-01,
          6.65382266e-01, 6.34614080e-02, 0., 0., 0., 0., 0., 0., 0., 0.,
          0., 3.48394841e-01, 2.80765563e-01, 2.76203930e-01,
          3.98224890e-01, 3.98224890e-01, 2.51597315e-01, 3.98224890e-01,
          3.98224890e-01, 1.47957310e-01, 0., 0., 0., 0., 2.07268491e-01,
          0., 8.83918464e-01, 4.08519685e-01, 4.47582453e-03, 0., 0., 0.,
          0., 0., 0., 0., 0., 0., 4.86220539e-01, 6.95686787e-03,
          2.00057030e-02, 1.42327813e-03, 1.76325142e-02, 2.03215913e-03,
          2.32614413e-01, 5.92788041e-01, 5.92788041e-01, 4.81214076e-01,
          6.64508436e-03, 1.99516807e-02, 3.07021692e-04, 2.34859213e-02,
          5.28465258e-03, 3.88568908e-01, 5.52678108e-01, 5.52678108e-01,
          5.31960964e-01, 1.60076143e-03, 4.80228383e-03, 0.,
          8.32325500e-03, 4.27545886e-03, 3.81610960e-01, 5.31960964e-01,
          5.31960964e-01, 4.89512533e-01, 5.81074543e-02, 1.42132699e-01,
          3.47552039e-02, 4.26272362e-01, 0., 2.77447015e-01,
          3.75545889e-01, 5.74573219e-01, 5.33559263e-01, 9.50791314e-03,
          1.80738866e-02, 1.25672873e-02, 1.86175127e-02, 7.07716448e-04,
          3.73755276e-01, 5.33559263e-01, 5.33559263e-01, 3.09867561e-01,
          3.58849065e-03, 1.02837961e-02, 1.74080406e-03, 4.91525419e-03,
          9.12185106e-03, 2.12003142e-01, 6.52797937e-01, 6.52797937e-01,
          1.00822762e-01, 7.66299441e-02, 5.35851955e-01, 5.35851955e-01,
          5.35851955e-01, 8.13897476e-02, 2.33029634e-01, 1.01515405e-01,
          2.14398488e-01, 3.87996584e-01, 1.84218392e-01, 4.77912992e-01,
          1.26259997e-01, 4.14363503e-01, 2.25701794e-01, 3.58001232e-01,
          2.58200973e-01, 3.84937197e-01, 4.59891260e-01, 1.59403235e-02,
          2.79580634e-02, 6.76385546e-03, 1.18105095e-02, 6.22829655e-03,
          2.56431967e-01, 5.98126471e-01, 5.98126471e-01, 1.00822762e-01,
          7.66299441e-02, 5.35851955e-01, 5.35851955e-01, 5.35851955e-01,
          8.13897476e-02, 2.33029634e-01, 1.01515405e-01, 2.14398488e-01,
          3.87996584e-01, 1.84218392e-01, 4.77912992e-01, 1.26259997e-01,
          4.14363503e-01, 2.25701794e-01, 3.58001232e-01, 2.58200973e-01,
          3.84937197e-01, 4.59891260e-01, 1.59403235e-02, 2.79580634e-02,
          6.76385546e-03, 1.18105095e-02, 6.22829655e-03, 2.56431967e-01,
          5.98126471e-01, 5.98126471e-01, 2.22902675e-03, 4.76596951e-02,
          5.74835062e-01, 5.74835062e-01, 5.74835062e-01, 2.51074210e-02,
          2.89989263e-03, 4.46049590e-03, 4.34838748e-03, 8.75049457e-02,
          7.88362846e-02, 5.69776237e-01, 5.69776237e-01, 5.69776237e-01,
          5.78938238e-02, 3.88442874e-02, 1.03064878e-02, 3.91958244e-02,
          1.90750197e-01, 1.93049610e-01, 3.41316372e-01, 2.65223347e-02,
          8.60681832e-01, 1.21326014e-01, 1.67171240e-01, 5.78751266e-02,
          6.86122403e-02, 3.97708341e-02, 1.31471798e-01, 5.65348685e-01,
          5.65348685e-01, 5.65348685e-01, 7.36039802e-02, 3.27710658e-02,
          6.24578260e-02, 7.89822042e-02, 4.01048660e-02, 3.96247618e-02,
          5.73884964e-01, 5.73884964e-01, 5.73884964e-01, 4.61777411e-02,
          1.65169761e-02, 8.68985336e-03, 2.40484439e-02, 2.29972787e-02,
          1.05445951e-01, 5.71596444e-01, 5.71596444e-01, 5.71596444e-01,
          4.77331169e-02, 8.62391945e-03, 3.98444524e-03, 1.04058189e-02,
          3.97708341e-02, 1.31471798e-01, 5.65348685e-01, 5.65348685e-01,
          5.65348685e-01, 7.36039802e-02, 3.27710658e-02, 6.24578260e-02,
          7.89822042e-02, 4.01048660e-02, 3.96247618e-02, 5.73884964e-01,
          5.73884964e-01, 5.73884964e-01, 4.61777411e-02, 1.65169761e-02,
          8.68985336e-03, 2.40484439e-02, 2.29972787e-02, 1.05445951e-01,
          5.71596444e-01, 5.71596444e-01, 5.71596444e-01, 4.77331169e-02,
          8.62391945e-03, 3.98444524e-03, 1.04058189e-02, 3.31630081e-01,
          3.70612472e-01, 3.70612472e-01, 3.70612472e-01, 3.70612472e-01,
          1.74644008e-01, 2.76117384e-01, 3.31503063e-01, 3.46797913e-01,
          2.05794469e-01, 1.51819840e-01, 5.17138124e-01, 5.17138124e-01,
          5.17138124e-01, 3.33495826e-01, 8.60565603e-02, 3.65867354e-02,
          8.47089887e-02, 5.57137933e-03, 4.43948358e-02, 5.75077534e-01,
          5.75077534e-01, 5.75077534e-01, 1.03779901e-02, 2.18402781e-03,
          6.37814810e-04, 4.54002118e-04, 0., 5.01905009e-02,
          2.58869022e-01, 6.36049509e-01, 6.36049509e-01, 3.12753201e-01,
          1.24364004e-01, 4.14546654e-02, 0., 0., 8.96864161e-02,
          3.85483414e-01, 3.05290490e-01, 6.09654844e-01, 6.09654844e-01,
          2.53007468e-02, 8.43358226e-03, 0., 0., 1.13337927e-01,
          5.71968257e-01, 5.71968257e-01, 5.71968257e-01, 0., 0., 0., 0.,
          0., 5.01905009e-02, 2.58869022e-01, 6.36049509e-01,
          6.36049509e-01, 3.12753201e-01, 1.24364004e-01, 4.14546654e-02,
          0., 0., 8.96864161e-02, 3.85483414e-01, 3.05290490e-01,
          6.09654844e-01, 6.09654844e-01, 2.53007468e-02, 8.43358226e-03,
          0., 0., 1.13337927e-01, 5.71968257e-01, 5.71968257e-01,
          5.71968257e-01, 0., 0., 0., 0., 0., 0., 0., 0., 0., 0., 0., 0.,
          0., 0., 0., 0., 0., 0., 0., 0., 0., 0., 0., 3.14025223e-01,
          9.42075670e-01, 0., 0., 0., 0., 0., 0., 0., 0., 0., 0., 0., 0.,
          0., 0., 0., 0., 0., 0., 0., 0., 0., 0., 0., 0., 0., 0., 0., 0.,
          0., 0., 0., 0., 0., 0., 0., 0., 0., 0., 0., 0., 0., 0., 0., 0.,
          0., 0., 0., 0., 0., 0., 0., 0., 0., 0., 0., 0., 0., 0., 0., 0.,
          0., 0., 0., 0., 0., 0., 0., 0., 0., 0., 0., 0., 0., 0., 0., 0.,
          0., 0., 0., 0., 0., 0., 0., 0., 0., 0., 0., 0., 0., 0., 0., 0.,
          0., 0., 0., 0., 0., 0., 0., 0., 0., 0., 0., 0., 0., 0., 0., 0.,
          0., 0., 0., 0., 0., 0., 5.31960964e-01, 1.60076143e-03,
          4.80228383e-03, 0., 8.32325500e-03, 4.27545886e-03,
          3.81610960e-01, 5.31960964e-01, 5.31960964e-01, 5.19451320e-01,
          2.60020085e-02, 1.57152563e-01, 2.14831978e-01, 0.,
          7.91085958e-02, 3.39065999e-01, 5.12252986e-01, 5.19451320e-01,
          5.95004737e-01, 2.30535835e-01, 1.22465007e-02, 3.32413763e-02,
          0., 0., 4.26983595e-01, 2.21992880e-01, 5.95004737e-01,
          3.09867561e-01, 3.58849065e-03, 1.02837961e-02, 1.74080406e-03,
          4.91525419e-03, 9.12185106e-03, 2.12003142e-01, 6.52797937e-01,
          6.52797937e-01, 5.16659439e-01, 4.89975736e-02, 1.30557373e-01,
          1.13804378e-01, 8.56921524e-02, 6.99569285e-02, 3.86515915e-01,
          5.16659439e-01, 5.16659439e-01, 3.48411411e-01, 3.48411411e-01,
          3.48411411e-01, 3.10267299e-01, 3.48411411e-01, 2.24765778e-01,
          3.48411411e-01, 3.48411411e-01, 3.48411411e-01, 4.59891260e-01,
          1.59403235e-02, 2.79580634e-02, 6.76385546e-03, 1.18105095e-02,
          6.22829655e-03, 2.56431967e-01, 5.98126471e-01, 5.98126471e-01,
          4.65974897e-01, 2.19499972e-02, 1.65549908e-02, 1.37303374e-03,
          4.00034301e-02, 6.47125999e-03, 3.69280219e-01, 5.65003395e-01,
          5.65003395e-01, 4.55862135e-01, 1.34749398e-01, 9.51364487e-02,
          7.88409784e-02, 1.49452865e-01, 1.05930232e-01, 4.90004748e-01,
          4.90004748e-01, 4.90004748e-01, 4.59891260e-01, 1.59403235e-02,
          2.79580634e-02, 6.76385546e-03, 1.18105095e-02, 6.22829655e-03,
          2.56431967e-01, 5.98126471e-01, 5.98126471e-01, 4.65974897e-01,
          2.19499972e-02, 1.65549908e-02, 1.37303374e-03, 4.00034301e-02,
          6.47125999e-03, 3.69280219e-01, 5.65003395e-01, 5.65003395e-01,
          4.55862135e-01, 1.34749398e-01, 9.51364487e-02, 7.88409784e-02,
          1.49452865e-01, 1.05930232e-01, 4.90004748e-01, 4.90004748e-01,
          4.90004748e-01, 1.90750197e-01, 1.93049610e-01, 3.41316372e-01,
          2.65223347e-02, 8.60681832e-01, 1.21326014e-01, 1.67171240e-01,
          5.78751266e-02, 6.86122403e-02, 3.51892531e-01, 5.70817990e-03,
          1.90315917e-02, 3.88787943e-03, 5.81218041e-02, 8.71544145e-03,
          5.37568390e-01, 5.37568390e-01, 5.37568390e-01, 2.35160112e-01,
          1.09058265e-02, 1.19579760e-02, 2.84147053e-03, 8.58138781e-03,
          1.52715184e-02, 5.41814208e-01, 5.67842305e-01, 5.67842305e-01,
          2.29972787e-02, 1.05445951e-01, 5.71596444e-01, 5.71596444e-01,
          5.71596444e-01, 4.77331169e-02, 8.62391945e-03, 3.98444524e-03,
          1.04058189e-02, 1.58551693e-01, 1.28992215e-01, 4.88529891e-01,
          5.60620964e-01, 5.60620964e-01, 2.62070280e-02, 1.46846905e-01,
          6.41859546e-02, 2.42900059e-01, 3.39421302e-01, 3.69108072e-03,
          1.11307940e-02, 4.03730810e-04, 8.29725992e-03, 1.48053188e-03,
          4.66370404e-01, 5.75039566e-01, 5.75039566e-01, 2.29972787e-02,
          1.05445951e-01, 5.71596444e-01, 5.71596444e-01, 5.71596444e-01,
          4.77331169e-02, 8.62391945e-03, 3.98444524e-03, 1.04058189e-02,
          1.58551693e-01, 1.28992215e-01, 4.88529891e-01, 5.60620964e-01,
          5.60620964e-01, 2.62070280e-02, 1.46846905e-01, 6.41859546e-02,
          2.42900059e-01, 3.39421302e-01, 3.69108072e-03, 1.11307940e-02,
          4.03730810e-04, 8.29725992e-03, 1.48053188e-03, 4.66370404e-01,
          5.75039566e-01, 5.75039566e-01, 5.57137933e-03, 4.43948358e-02,
          5.75077534e-01, 5.75077534e-01, 5.75077534e-01, 1.03779901e-02,
          2.18402781e-03, 6.37814810e-04, 4.54002118e-04, 4.59710776e-04,
          8.87581706e-02, 5.73406279e-01, 5.73406279e-01, 5.73406279e-01,
          2.51251459e-03, 2.21827161e-03, 2.52969330e-04, 7.20073411e-04,
          1.27966041e-02, 4.42699566e-02, 5.73367774e-01, 5.73367774e-01,
          5.73367774e-01, 4.21015993e-02, 6.07974902e-02, 2.03833133e-02,
          3.86672700e-03, 0., 1.13337927e-01, 5.71968257e-01,
          5.71968257e-01, 5.71968257e-01, 0., 0., 0., 0., 3.19236554e-02,
          1.30400196e-01, 5.68922818e-01, 5.68922818e-01, 5.68922818e-01,
          6.45880252e-02, 1.88087393e-02, 6.26957975e-03, 2.66735032e-02,
          1.69796832e-02, 3.17188166e-02, 5.74901998e-01, 5.74901998e-01,
          5.74901998e-01, 3.00218128e-02, 1.54115092e-02, 6.35847962e-03,
          1.57745238e-02, 0., 1.13337927e-01, 5.71968257e-01,
          5.71968257e-01, 5.71968257e-01, 0., 0., 0., 0., 3.19236554e-02,
          1.30400196e-01, 5.68922818e-01, 5.68922818e-01, 5.68922818e-01,
          6.45880252e-02, 1.88087393e-02, 6.26957975e-03, 2.66735032e-02,
          1.69796832e-02, 3.17188166e-02, 5.74901998e-01, 5.74901998e-01,
          5.74901998e-01, 3.00218128e-02, 1.54115092e-02, 6.35847962e-03,
          1.57745238e-02, 0., 3.14025223e-01, 9.42075670e-01, 0., 0., 0.,
          0., 0., 0., 1.97089881e-01, 3.22781324e-01, 4.71446037e-01,
          4.71446037e-01, 4.71446037e-01, 3.69892657e-01, 1.84752613e-01,
          6.15842082e-02, 1.03576481e-01, 6.71274662e-02, 1.44617379e-01,
          5.65925479e-01, 5.65925479e-01, 5.65925479e-01, 4.76799048e-02,
          5.06459847e-02, 1.73579119e-02, 5.45343347e-02, 0., 0., 0., 0.,
          0., 0., 0., 0., 0., 0., 0., 0., 0., 9.83855247e-01, 0., 0., 0.,
          0., 3.34718555e-01, 5.04432857e-01, 5.04432857e-01,
          1.92838982e-01, 5.04432857e-01, 0., 1.47506565e-01,
          4.91688587e-02, 2.41257563e-01, 0., 0., 0., 0., 0., 0., 0., 0.,
          0., 0., 0., 0., 0., 9.83855247e-01, 0., 0., 0., 0.,
          3.34718555e-01, 5.04432857e-01, 5.04432857e-01, 1.92838982e-01,
          5.04432857e-01, 0., 1.47506565e-01, 4.91688587e-02,
          2.41257563e-01, 0., 0., 0., 0., 0., 0., 0., 0., 0., 0., 0., 0.,
          0., 0., 0., 0., 0., 0., 7.21412301e-02, 3.12004417e-01,
          5.75673938e-01, 0., 7.45555758e-01, 0., 4.19932753e-02,
          1.39977597e-02, 0., 0., 0., 0., 0., 0., 0., 0., 0., 0., 0., 0.,
          0., 0., 0., 0., 0., 0., 0., 0., 0., 0., 0., 0., 0., 0., 0., 0.,
          5.95004737e-01, 2.30535835e-01, 1.22465007e-02, 3.32413763e-02,
          0., 0., 4.26983595e-01, 2.21992880e-01, 5.95004737e-01,
          6.50702953e-01, 1.56391934e-01, 0., 0., 0., 0., 5.26978254e-01,
          1.75659433e-01, 4.81803030e-01, 0., 0., 0., 0., 0., 0., 0., 0.,
          0., 3.48411411e-01, 3.48411411e-01, 3.48411411e-01,
          3.10267299e-01, 3.48411411e-01, 2.24765778e-01, 3.48411411e-01,
          3.48411411e-01, 3.48411411e-01, 3.29347163e-01, 1.50921643e-01,
          1.50299385e-01, 1.36325553e-01, 3.48028570e-01, 4.15329903e-01,
          4.20221388e-01, 4.20221388e-01, 4.20221388e-01, 0., 0., 0., 0.,
          0., 0., 0., 0., 0., 4.55862135e-01, 1.34749398e-01,
          9.51364487e-02, 7.88409784e-02, 1.49452865e-01, 1.05930232e-01,
          4.90004748e-01, 4.90004748e-01, 4.90004748e-01, 3.99098814e-01,
          2.72023380e-01, 3.99098814e-01, 9.41737443e-02, 3.06464225e-01,
          1.51089162e-01, 3.99098814e-01, 3.99098814e-01, 3.99098814e-01,
          4.44999427e-01, 2.89539039e-01, 2.78437853e-01, 0.,
          1.06931860e-02, 4.44999427e-01, 4.44999427e-01, 2.04895422e-01,
          4.44999427e-01, 4.55862135e-01, 1.34749398e-01, 9.51364487e-02,
          7.88409784e-02, 1.49452865e-01, 1.05930232e-01, 4.90004748e-01,
          4.90004748e-01, 4.90004748e-01, 3.99098814e-01, 2.72023380e-01,
          3.99098814e-01, 9.41737443e-02, 3.06464225e-01, 1.51089162e-01,
          3.99098814e-01, 3.99098814e-01, 3.99098814e-01, 4.44999427e-01,
          2.89539039e-01, 2.78437853e-01, 0., 1.06931860e-02,
          4.44999427e-01, 4.44999427e-01, 2.04895422e-01, 4.44999427e-01,
          2.35160112e-01, 1.09058265e-02, 1.19579760e-02, 2.84147053e-03,
          8.58138781e-03, 1.52715184e-02, 5.41814208e-01, 5.67842305e-01,
          5.67842305e-01, 4.18907344e-01, 5.72231933e-02, 1.83356047e-01,
          6.07467555e-02, 2.19978675e-01, 2.77970601e-02, 4.93235201e-01,
          4.93235201e-01, 4.93235201e-01, 3.81703287e-01, 1.80046096e-01,
          3.22984546e-01, 1.86259314e-01, 3.10276359e-01, 3.81703287e-01,
          3.81703287e-01, 3.81703287e-01, 3.81703287e-01, 3.39421302e-01,
          3.69108072e-03, 1.11307940e-02, 4.03730810e-04, 8.29725992e-03,
          1.48053188e-03, 4.66370404e-01, 5.75039566e-01, 5.75039566e-01,
          3.39939505e-01, 3.78211355e-03, 1.14023983e-02, 3.75003368e-03,
          3.01071964e-02, 4.89722658e-03, 2.72967339e-01, 6.33449554e-01,
          6.33449554e-01, 2.97096640e-01, 5.29358648e-02, 4.97181900e-02,
          5.13436981e-02, 7.72613361e-02, 6.10650927e-02, 5.03559232e-01,
          5.63438833e-01, 5.63438833e-01, 3.39421302e-01, 3.69108072e-03,
          1.11307940e-02, 4.03730810e-04, 8.29725992e-03, 1.48053188e-03,
          4.66370404e-01, 5.75039566e-01, 5.75039566e-01, 3.39939505e-01,
          3.78211355e-03, 1.14023983e-02, 3.75003368e-03, 3.01071964e-02,
          4.89722658e-03, 2.72967339e-01, 6.33449554e-01, 6.33449554e-01,
          2.97096640e-01, 5.29358648e-02, 4.97181900e-02, 5.13436981e-02,
          7.72613361e-02, 6.10650927e-02, 5.03559232e-01, 5.63438833e-01,
          5.63438833e-01, 1.27966041e-02, 4.42699566e-02, 5.73367774e-01,
          5.73367774e-01, 5.73367774e-01, 4.21015993e-02, 6.07974902e-02,
          2.03833133e-02, 3.86672700e-03, 1.83828175e-01, 2.30093990e-02,
          2.72748303e-02, 3.27060483e-02, 6.13807552e-02, 3.41543905e-03,
          5.64048588e-01, 5.64048588e-01, 5.64048588e-01, 5.64484775e-01,
          4.50179446e-03, 1.09745748e-02, 9.39877331e-03, 2.46893726e-02,
          7.18044862e-03, 1.93762094e-01, 5.64484775e-01, 5.64484775e-01,
          1.69796832e-02, 3.17188166e-02, 5.74901998e-01, 5.74901998e-01,
          5.74901998e-01, 3.00218128e-02, 1.54115092e-02, 6.35847962e-03,
          1.57745238e-02, 1.86046511e-02, 6.30924925e-02, 5.74017227e-01,
          5.74017227e-01, 5.74017227e-01, 6.01970684e-03, 1.95831303e-02,
          2.02996470e-02, 2.49449667e-02, 3.37825984e-01, 2.78589521e-02,
          6.60933182e-02, 5.66246174e-02, 5.04208565e-01, 4.97901738e-01,
          1.98758647e-01, 2.76809484e-01, 5.04208565e-01, 1.69796832e-02,
          3.17188166e-02, 5.74901998e-01, 5.74901998e-01, 5.74901998e-01,
          3.00218128e-02, 1.54115092e-02, 6.35847962e-03, 1.57745238e-02,
          1.86046511e-02, 6.30924925e-02, 5.74017227e-01, 5.74017227e-01,
          5.74017227e-01, 6.01970684e-03, 1.95831303e-02, 2.02996470e-02,
          2.49449667e-02, 3.37825984e-01, 2.78589521e-02, 6.60933182e-02,
          5.66246174e-02, 5.04208565e-01, 4.97901738e-01, 1.98758647e-01,
          2.76809484e-01, 5.04208565e-01, 6.71274662e-02, 1.44617379e-01,
          5.65925479e-01, 5.65925479e-01, 5.65925479e-01, 4.76799048e-02,
          5.06459847e-02, 1.73579119e-02, 5.45343347e-02, 3.12949456e-02,
          6.15002215e-02, 5.72174072e-01, 5.72174072e-01, 5.72174072e-01,
          7.90817067e-02, 1.82391722e-02, 8.47368781e-03, 2.67762244e-02,
          1.67545769e-02, 1.01397084e-02, 4.96948734e-02, 1.46231905e-01,
          8.12848032e-01, 5.40930331e-01, 1.16620660e-01, 1.17486082e-02,
          2.41889562e-02, 3.34718555e-01, 5.04432857e-01, 5.04432857e-01,
          1.92838982e-01, 5.04432857e-01, 0., 1.47506565e-01,
          4.91688587e-02, 2.41257563e-01, 3.97518069e-01, 3.97518069e-01,
          3.97518069e-01, 2.72100538e-01, 3.97518069e-01, 1.83038235e-01,
          3.97518069e-01, 1.50016114e-01, 2.75462031e-01, 2.70216972e-01,
          9.22870114e-02, 3.10567200e-01, 3.90684843e-01, 4.34671640e-01,
          2.96967566e-01, 4.34671640e-01, 2.54492760e-01, 3.66336018e-01,
          3.34718555e-01, 5.04432857e-01, 5.04432857e-01, 1.92838982e-01,
          5.04432857e-01, 0., 1.47506565e-01, 4.91688587e-02,
          2.41257563e-01, 3.97518069e-01, 3.97518069e-01, 3.97518069e-01,
          2.72100538e-01, 3.97518069e-01, 1.83038235e-01, 3.97518069e-01,
          1.50016114e-01, 2.75462031e-01, 2.70216972e-01, 9.22870114e-02,
          3.10567200e-01, 3.90684843e-01, 4.34671640e-01, 2.96967566e-01,
          4.34671640e-01, 2.54492760e-01, 3.66336018e-01, 7.21412301e-02,
          3.12004417e-01, 5.75673938e-01, 0., 7.45555758e-01, 0.,
          4.19932753e-02, 1.39977597e-02, 0., 2.26635799e-01,
          3.74817461e-01, 4.84427691e-01, 2.15181168e-02, 6.59417927e-01,
          1.92694068e-01, 2.87168503e-01, 9.36114863e-02, 5.69188334e-02,
          6.25867918e-02, 9.85858217e-03, 1.29077569e-01, 5.38566768e-01,
          5.38566768e-01, 1.00074723e-01, 5.14084101e-01, 3.10936034e-01,
          1.51193336e-01, 0., 0., 0., 0., 0., 0., 0., 0., 0., 0., 0., 0.,
          0., 0., 0., 0., 0., 0., 0., 0., 0., 0., 0., 0., 0., 0., 0. ]
      - [ 5.88235795e-01, 5.88235795e-01, 2.24977106e-01, 6.48008473e-03,
          2.82072872e-02, 1.64292520e-04, 3.26896235e-02, 1.11411335e-02,
          4.99438316e-01, 5.74790537e-01, 5.74790537e-01, 5.74790537e-01,
          7.79639278e-03, 2.77749542e-02, 0., 2.19811015e-02,
          7.32703367e-03, 4.16981392e-02, 1.44357756e-01, 3.85668222e-03,
          1.15700467e-02, 0., 1.33490805e-02, 0., 5.33017159e-01,
          5.86884379e-01, 5.86884379e-01, 6.09363504e-02, 2.04730138e-01,
          6.72298372e-01, 6.72298372e-01, 2.00650573e-01, 3.76456534e-03,
          9.85917263e-03, 1.44180516e-02, 5.57730272e-02, 3.48354667e-01,
          2.76066154e-01, 7.38811612e-01, 9.02595967e-02, 3.81003320e-01,
          4.10184264e-02, 1.87027782e-01, 4.29589860e-02, 2.18735576e-01,
          5.89564025e-01, 6.35938942e-02, 1.90781668e-01, 0.,
          7.02961534e-02, 0., 3.74376684e-01, 1.88100517e-01,
          6.27587795e-01, 9.90859047e-03, 2.76697308e-01, 6.76178634e-01,
          6.76178634e-01, 3.14155482e-02, 1.07353944e-02, 1.90641340e-02,
          1.93205867e-02, 1.77789368e-02, 2.44788509e-02, 5.30992746e-01,
          7.50449598e-01, 3.82364571e-01, 1.94142684e-02, 6.04617596e-03,
          8.57151393e-03, 0., 9.63647664e-03, 6.02349043e-02,
          1.55886989e-02, 4.67660986e-02, 2.11346280e-02, 9.51801956e-01,
          1.26593128e-01, 2.14955136e-01, 1.10511303e-01, 6.02349043e-02,
          9.90859047e-03, 2.76697308e-01, 6.76178634e-01, 6.76178634e-01,
          3.14155482e-02, 1.07353944e-02, 1.90641340e-02, 1.93205867e-02,
          1.77789368e-02, 2.44788509e-02, 5.30992746e-01, 7.50449598e-01,
          3.82364571e-01, 1.94142684e-02, 6.04617596e-03, 8.57151393e-03,
          0., 9.63647664e-03, 6.02349043e-02, 1.55886989e-02,
          4.67660986e-02, 2.11346280e-02, 9.51801956e-01, 1.26593128e-01,
          2.14955136e-01, 1.10511303e-01, 6.02349043e-02, 2.31242944e-02,
          6.84597731e-01, 6.84597731e-01, 2.33851075e-01, 5.87540166e-03,
          1.80806722e-02, 8.57527461e-03, 9.93088167e-03, 7.93640967e-03,
          3.74925230e-03, 6.96267307e-01, 6.96267307e-01, 1.52776390e-01,
          9.99940559e-03, 2.39441753e-03, 0., 0., 3.58544430e-03,
          1.46466016e-03, 1.12067508e-04, 3.36202531e-04, 3.18561532e-02,
          5.04590571e-01, 5.04590571e-01, 5.04590571e-01, 4.79682535e-01,
          3.62097798e-03, 5.31930447e-01, 5.94325244e-01, 5.94325244e-01,
          4.75999713e-03, 2.03324668e-02, 2.44085174e-02, 2.30266266e-02,
          1.51051616e-03, 5.57340086e-02, 1.34784207e-01, 6.40168250e-01,
          6.40168250e-01, 2.96232346e-02, 1.12874277e-01, 2.39932343e-01,
          2.85695851e-01, 3.81840542e-02, 3.93071175e-02, 4.39058617e-03,
          1.11666890e-02, 1.02096489e-02, 1.18494472e-02, 1.97078675e-01,
          6.00065172e-01, 6.00065172e-01, 4.84339207e-01, 6.23715203e-03,
          5.31930447e-01, 5.94325244e-01, 5.94325244e-01, 4.75999713e-03,
          2.03324668e-02, 2.44085174e-02, 2.30266266e-02, 1.51051616e-03,
          5.57340086e-02, 1.34784207e-01, 6.40168250e-01, 6.40168250e-01,
          2.96232346e-02, 1.12874277e-01, 2.39932343e-01, 2.85695851e-01,
          3.81840542e-02, 3.93071175e-02, 4.39058617e-03, 1.11666890e-02,
          1.02096489e-02, 1.18494472e-02, 1.97078675e-01, 6.00065172e-01,
          6.00065172e-01, 4.84339207e-01, 6.23715203e-03, 5.64486325e-01,
          5.64486325e-01, 5.64486325e-01, 1.70113165e-02, 2.48920675e-02,
          7.78118754e-03, 8.92591383e-03, 5.24416147e-03, 1.93266690e-01,
          2.91203931e-02, 4.46618870e-02, 5.17450832e-02, 1.50161544e-02,
          3.57138142e-02, 6.11404717e-01, 6.11404717e-01, 4.88642633e-01,
          2.17046645e-02, 2.00530272e-02, 2.55754832e-02, 1.24655273e-02,
          4.20880914e-02, 2.61875659e-01, 6.66241407e-01, 6.66241407e-01,
          1.83775946e-01, 1.60602629e-02, 2.25776792e-01, 2.12173164e-01,
          5.43528497e-01, 5.43528497e-01, 5.43528497e-01, 4.61710170e-02,
          1.19637484e-02, 1.38510270e-02, 9.92126539e-02, 3.44743114e-03,
          5.77603420e-03, 1.74418446e-02, 2.66196136e-03, 2.09693890e-03,
          1.81671500e-01, 6.92714512e-01, 6.92714512e-01, 3.56250256e-03,
          4.25457489e-03, 2.35502003e-03, 4.41483781e-03, 9.61274654e-03,
          3.09362039e-02, 3.50798607e-01, 6.59261644e-01, 6.59261644e-01,
          3.76755185e-03, 2.25776792e-01, 2.12173164e-01, 5.43528497e-01,
          5.43528497e-01, 5.43528497e-01, 4.61710170e-02, 1.19637484e-02,
          1.38510270e-02, 9.92126539e-02, 3.44743114e-03, 5.77603420e-03,
          1.74418446e-02, 2.66196136e-03, 2.09693890e-03, 1.81671500e-01,
          6.92714512e-01, 6.92714512e-01, 3.56250256e-03, 4.25457489e-03,
          2.35502003e-03, 4.41483781e-03, 9.61274654e-03, 3.09362039e-02,
          3.50798607e-01, 6.59261644e-01, 6.59261644e-01, 3.76755185e-03,
          2.03288272e-02, 4.19388086e-01, 5.86017907e-01, 5.86017907e-01,
          3.58914435e-01, 4.17735353e-02, 1.90406106e-02, 4.39203205e-03,
          8.28201044e-03, 9.60983988e-03, 7.02207386e-02, 3.18679333e-01,
          5.08868657e-02, 2.61329226e-02, 2.32261489e-03, 6.64572716e-01,
          6.64572716e-01, 1.39233405e-02, 5.08674234e-02, 1.17217163e-02,
          7.50361651e-04, 0., 7.60216936e-02, 4.70428960e-04,
          6.99640930e-01, 6.99640930e-01, 7.42699876e-02, 1.07396049e-02,
          7.01559424e-01, 7.01559424e-01, 5.87459765e-02, 2.43475419e-02,
          3.06060705e-02, 5.39550669e-02, 2.31760666e-02, 9.01977997e-03,
          8.00328236e-03, 1.50286764e-01, 4.30235028e-01, 3.27230198e-03,
          1.51578253e-02, 4.47920084e-01, 5.43502986e-01, 5.38926661e-01,
          1.04766255e-02, 4.90539744e-02, 6.52651191e-02, 1.08492398e-03,
          0., 1.11353174e-01, 4.15819675e-01, 6.30519450e-01,
          6.30519450e-01, 8.13792646e-02, 1.07396049e-02, 7.01559424e-01,
          7.01559424e-01, 5.87459765e-02, 2.43475419e-02, 3.06060705e-02,
          5.39550669e-02, 2.31760666e-02, 9.01977997e-03, 8.00328236e-03,
          1.50286764e-01, 4.30235028e-01, 3.27230198e-03, 1.51578253e-02,
          4.47920084e-01, 5.43502986e-01, 5.38926661e-01, 1.04766255e-02,
          4.90539744e-02, 6.52651191e-02, 1.08492398e-03, 0.,
          1.11353174e-01, 4.15819675e-01, 6.30519450e-01, 6.30519450e-01,
          8.13792646e-02, 5.74101388e-01, 5.74101388e-01, 5.74101388e-01,
          1.86967514e-02, 1.34768868e-02, 1.05238473e-02, 2.82233376e-02,
          4.34689410e-03, 6.35048226e-02, 2.65066735e-02, 1.00648999e-01,
          1.80710331e-01, 5.13190695e-04, 2.46391650e-02, 6.72410727e-01,
          6.72410727e-01, 2.11461693e-01, 1.42291570e-02, 1.17953151e-01,
          5.46150915e-02, 4.62383740e-02, 0., 1.60297707e-01,
          6.25308871e-01, 6.25308871e-01, 3.89919221e-01, 1.22345395e-01,
          4.27206367e-01, 4.27206367e-01, 1.16686411e-01, 6.71140058e-03,
          4.27206367e-01, 4.27206367e-01, 4.27206367e-01, 2.12195784e-01,
          1.56583101e-01, 3.36465947e-02, 1.22816609e-02, 2.88507231e-02,
          1.81883350e-02, 4.68794465e-01, 6.13463521e-01, 6.13463521e-01,
          1.37104392e-01, 1.37112876e-02, 4.22713369e-01, 2.15025276e-01,
          1.90635547e-01, 6.67520911e-02, 4.65672791e-01, 4.65672791e-01,
          4.65672791e-01, 2.33712330e-01, 1.56376854e-01, 1.44357756e-01,
          3.85668222e-03, 1.15700467e-02, 0., 1.33490805e-02, 0.,
          5.33017159e-01, 5.86884379e-01, 5.86884379e-01, 4.52428043e-01,
          1.89612655e-03, 8.99349619e-03, 1.43721579e-02, 9.67446994e-03,
